BIGRAM: method Katz, cutoff 0
  coef[7]: 0.990000 0.990000 0.990000 0.990000 0.990000 0.990000 0.990000

TRIGRAM: method Katz, cutoff 0
  coef[7]: 0.990000 0.990000 0.990000 0.990000 0.990000 0.990000 0.990000

\data\
ngram 1=121
ngram 2=1177
ngram 3=8851

\1-grams:
-0.9995	</s>	-2.0000
-99.9900	<s>	-2.1523
-1.5984	a	-1.9767
-2.6515	address	-1.9522
-5.4084	am	-2.0000
-2.0436	an	-1.9941
-1.4383	and	-2.1878
-2.3320	ann	-4.3566
-5.6515	ann's	-1.9926
-2.3321	anthony	-4.3566
-5.6515	anthony's	-1.9926
-5.1074	appointment	-2.5281
-1.7597	arrange	-1.9849
-2.3378	bill	-4.3509
-5.6515	bill's	-1.9926
-1.7533	call	-2.9679
-1.7633	cancel	-1.9906
-2.2299	carlton	-1.9177
-4.3504	carlton's	-1.9926
-2.3288	charles	-4.3599
-5.6515	charles's	-1.9926
-1.8101	copy	-1.9857
-2.3393	david	-4.3493
-5.6515	david's	-1.9926
-2.2275	davies	-1.9177
-4.3504	davies's	-1.9926
-1.9798	dial	-2.8057
-2.2578	doctor	-2.4295
-1.6968	double	-2.0837
-1.6103	eight	-2.0285
-2.3346	elaine	-4.3541
-5.6515	elaine's	-1.9926
-2.1734	email	-1.9847
-2.1696	fax	-1.9847
-2.6905	find	-1.9935
-4.9313	first	-2.4735
-1.6042	five	-2.0264
-1.6103	four	-2.0291
-5.4084	free	-1.9841
-2.5073	friday	-1.9542
-1.8916	get	-1.9935
-2.2404	glover	-1.9177
-2.8647	how	-1.9994
-5.4084	i	-2.0000
-2.1618	interview	-1.9841
-2.7606	is	-3.5675
-2.3333	james	-4.3554
-5.6515	james's	-1.9926
-2.3343	john	-4.3544
-5.6515	john's	-1.9926
-2.2359	johnson	-1.9177
-2.2369	jones	-1.9177
-4.3504	jones's	-1.9926
-2.3324	keith	-4.3721
-4.9313	last	-2.4735
-2.2489	letter	-1.9857
-2.8647	long	-1.9992
-1.8276	me	-2.9236
-2.0758	meeting	-5.3001
-2.3280	michael	-4.3607
-5.6515	michael's	-1.9926
-2.3271	mike	-4.3616
-5.6515	mike's	-1.9926
-2.2310	miller	-1.9177
-4.3504	miller's	-1.9926
-2.2320	milne	-1.9177
-2.5003	monday	-1.9542
-2.8598	my	-1.9963
-1.6051	nine	-2.0268
-2.3294	norman	-4.3593
-5.6515	norman's	-1.9926
-2.6507	number	-1.9522
-2.3859	of	-2.3501
-1.5603	oh	-2.0390
-1.8043	on	-1.9931
-1.6051	one	-2.0298
-2.3347	phil	-4.3540
-5.6515	phil's	-1.9926
-1.7516	phone	-2.1568
-2.2318	pinker	-1.9177
-4.3559	pinker's	-1.9926
-1.8438	please	-2.0301
-2.2572	professor	-2.4227
-2.1037	richard	-4.5850
-5.6515	richard's	-1.9926
-2.1555	seminar	-1.9841
-1.7730	send	-1.9849
-1.6059	seven	-2.0295
-2.3289	simone	-4.3598
-5.6515	simone's	-1.9926
-1.6038	six	-2.0272
-2.2247	smith	-1.9177
-4.3504	smith's	-1.9926
-2.3364	steve	-4.3522
-5.6515	steve's	-1.9926
-2.3309	susan	-4.3578
-5.6515	susan's	-1.9926
-2.3353	ted	-4.3533
-5.6515	ted's	-1.9926
-2.1669	teleconference	-1.9841
-2.9525	telephone	-1.9990
-1.6704	the	-2.0726
-1.6102	three	-2.0321
-2.4978	thursday	-1.9542
-1.4901	to	-2.4671
-1.9921	today	-1.9542
-1.9936	tomorrow	-1.9542
-2.3330	tony	-4.3557
-5.6515	tony's	-1.9926
-2.5047	tuesday	-1.9542
-1.6063	two	-2.0310
-2.5063	wednesday	-1.9542
-2.3315	wendy	-4.3572
-5.6515	wendy's	-1.9926
-3.4508	what	-1.9992
-4.7095	when	-2.6982
-1.4437	with	-2.4546
-2.2326	wordsworth	-1.9177
-4.3504	wordsworth's	-1.9926
-2.2281	young	-1.9177
-1.6126	zero	-2.0300

\2-grams:
-0.0044	</s> <s>	-0.0000
-0.8391	<s> arrange	-0.0000
-1.0281	<s> call	-2.6225
-0.8443	<s> cancel	+0.0000
-1.0382	<s> dial	-0.0224
-1.8796	<s> find	+0.0000
-0.9677	<s> get	+0.0000
-1.8696	<s> how	+0.0000
-1.0205	<s> phone	-2.6476
-0.8443	<s> please	+0.0000
-0.8419	<s> send	-0.0000
-2.4512	<s> what	+0.0000
-3.7099	<s> when	+0.0000
-0.6542	a fax	-1.2400
-0.6550	a letter	+0.0000
-0.8612	a meeting	+0.7463
-0.8602	a phone	-1.7875
-0.8603	a seminar	+0.0000
-0.8750	a teleconference	-0.0000
-1.1054	address </s>	+0.0000
-0.0402	address of	+0.0020
-0.0044	am i	+0.0000
-0.2139	an email	-1.2460
-0.4214	an interview	+0.0000
-1.5989	and ann	-1.8254
-1.5787	and anthony	-1.8009
-1.5855	and bill	-1.8013
-1.5790	and charles	-1.7993
-0.3761	and copy	+0.0000
-1.5865	and david	-1.7852
-1.8785	and doctor	-0.0097
-1.5840	and elaine	-1.8261
-1.5878	and james	-1.8008
-1.5945	and john	-1.8121
-1.5814	and keith	-1.7985
-1.5716	and michael	-1.8356
-1.5744	and mike	-1.8386
-1.5835	and norman	-1.8241
-1.5868	and phil	-1.8215
-1.8722	and professor	-0.0036
-1.3009	and richard	-1.7754
-1.5840	and simone	-1.8044
-1.5904	and steve	-1.7966
-1.5611	and susan	-1.8299
-1.5741	and ted	-1.8298
-1.5774	and tony	-1.8084
-1.5868	and wendy	-1.7911
-1.2348	ann </s>	+0.0000
-0.8109	ann and	-0.0354
-1.2251	ann carlton	+0.0000
-3.3238	ann carlton's	-0.0000
-1.2013	ann davies	+0.0000
-3.3238	ann davies's	-0.0000
-1.2339	ann glover	-0.0000
-1.2313	ann johnson	-0.0000
-1.2295	ann jones	-0.0000
-3.3238	ann jones's	-0.0000
-1.2139	ann miller	+0.0000
-3.3238	ann miller's	-0.0000
-1.2071	ann milne	+0.0000
-1.3326	ann on	+0.0000
-1.1883	ann pinker	-0.0000
-3.3238	ann pinker's	-0.0000
-1.2013	ann smith	-0.0000
-3.3238	ann smith's	-0.0000
-1.4837	ann today	+0.0000
-1.4712	ann tomorrow	+0.0000
-1.2088	ann wordsworth	+0.0000
-3.3238	ann wordsworth's	-0.0000
-1.2251	ann young	-0.0000
-0.6064	ann's address	-1.9645
-0.6064	ann's email	-1.9211
-0.6064	ann's fax	-1.9223
-0.6064	ann's telephone	+0.0000
-1.2286	anthony </s>	+0.0000
-0.8238	anthony and	-0.0211
-1.2251	anthony carlton	+0.0000
-3.3237	anthony carlton's	-0.0000
-1.1980	anthony davies	+0.0000
-3.3237	anthony davies's	-0.0000
-1.2242	anthony glover	-0.0000
-1.2303	anthony johnson	-0.0000
-1.2122	anthony jones	-0.0000
-3.3237	anthony jones's	-0.0000
-1.2549	anthony miller	+0.0000
-3.3237	anthony miller's	-0.0000
-1.2004	anthony milne	+0.0000
-1.3205	anthony on	+0.0000
-1.2181	anthony pinker	-0.0000
-3.3237	anthony pinker's	-0.0000
-1.2029	anthony smith	-0.0000
-3.3237	anthony smith's	-0.0000
-1.4666	anthony today	+0.0000
-1.4575	anthony tomorrow	+0.0000
-1.1923	anthony wordsworth	+0.0000
-3.3237	anthony wordsworth's	-0.0000
-1.2088	anthony young	-0.0000
-0.6064	anthony's address	-1.9645
-0.6064	anthony's email	-1.9211
-0.6064	anthony's fax	-1.9223
-0.6064	anthony's telephone	+0.0000
-0.1461	appointment on	+0.0000
-0.8495	appointment today	+0.0000
-0.8495	appointment tomorrow	+0.0000
-0.1008	arrange a	-1.6562
-0.7054	arrange an	-1.7931
-1.2211	bill </s>	+0.0000
-0.8178	bill and	-0.0344
-1.1956	bill carlton	+0.0000
-3.3180	bill carlton's	-0.0000
-1.2107	bill davies	+0.0000
-3.3180	bill davies's	-0.0000
-1.2300	bill glover	-0.0000
-1.2185	bill johnson	-0.0000
-1.2176	bill jones	-0.0000
-3.3180	bill jones's	-0.0000
-1.2090	bill miller	+0.0000
-3.3180	bill miller's	-0.0000
-1.2345	bill milne	+0.0000
-1.3405	bill on	+0.0000
-1.2133	bill pinker	-0.0000
-3.3180	bill pinker's	-0.0000
-1.1874	bill smith	-0.0000
-3.3180	bill smith's	-0.0000
-1.4717	bill today	+0.0000
-1.4892	bill tomorrow	+0.0000
-1.2363	bill wordsworth	+0.0000
-3.3180	bill wordsworth's	-0.0000
-1.2005	bill young	-0.0000
-0.6064	bill's address	-1.9645
-0.6064	bill's email	-1.9211
-0.6064	bill's fax	-1.9223
-0.6064	bill's telephone	+0.0000
-3.1244	call ann	-1.4330
-3.1244	call anthony	-1.4317
-3.1244	call bill	-1.4271
-3.1244	call charles	-1.4311
-3.1244	call david	-1.4271
-1.9941	call doctor	+0.0082
-1.3370	call double	+0.0057
-1.3560	call eight	-1.4029
-3.1200	call elaine	-1.4305
-1.3594	call five	-1.4274
-1.3547	call four	-1.4309
-3.1200	call james	-1.4287
-3.1200	call john	-1.4228
-3.1200	call keith	-1.4291
-3.1200	call michael	-1.4400
-3.1385	call mike	-1.4387
-1.3386	call nine	-1.4219
-3.1200	call norman	-1.4466
-1.0601	call oh	-1.4046
-1.3547	call one	-1.3944
-3.1200	call phil	-1.4397
-1.9857	call professor	-0.0105
-3.1200	call richard	-1.4338
-1.3588	call seven	-1.4114
-3.1385	call simone	-1.4237
-1.3541	call six	-1.3944
-3.1200	call steve	-1.4343
-3.1200	call susan	-1.4501
-3.1200	call ted	-1.4397
-1.3480	call three	-1.4291
-3.1200	call tony	-1.4366
-1.3840	call two	-1.4267
-3.1200	call wendy	-1.4305
-0.4063	call with	-0.0021
-1.3751	call zero	-1.4231
-0.0044	cancel the	-1.2988
-0.5673	carlton </s>	+0.0000
-0.4800	carlton and	+0.0178
-0.7534	carlton on	+0.0000
-0.9707	carlton today	+0.0000
-0.9804	carlton tomorrow	+0.0000
-0.6064	carlton's address	-1.9645
-0.6064	carlton's email	-1.9211
-0.6064	carlton's fax	-1.9223
-0.6064	carlton's telephone	+0.0000
-1.2453	charles </s>	+0.0000
-0.8182	charles and	-0.0397
-1.2046	charles carlton	+0.0000
-3.3270	charles carlton's	-0.0000
-1.1948	charles davies	+0.0000
-3.3270	charles davies's	-0.0000
-1.2444	charles glover	-0.0000
-1.2046	charles johnson	-0.0000
-1.2417	charles jones	-0.0000
-3.3270	charles jones's	-0.0000
-1.2087	charles miller	+0.0000
-3.3270	charles miller's	-0.0000
-1.2121	charles milne	+0.0000
-1.3589	charles on	+0.0000
-1.2172	charles pinker	-0.0000
-3.3270	charles pinker's	-0.0000
-1.2029	charles smith	-0.0000
-3.3270	charles smith's	-0.0000
-1.4520	charles today	+0.0000
-1.4505	charles tomorrow	+0.0000
-1.2062	charles wordsworth	+0.0000
-3.3270	charles wordsworth's	-0.0000
-1.2104	charles young	-0.0000
-0.6064	charles's address	-1.9645
-0.6064	charles's email	-1.9211
-0.6064	charles's fax	-1.9223
-0.6064	charles's telephone	+0.0000
-0.0044	copy to	-0.0031
-1.2495	david </s>	+0.0000
-0.8239	david and	-0.0248
-1.2240	david carlton	+0.0000
-3.3165	david carlton's	-0.0000
-1.1990	david davies	+0.0000
-3.3165	david davies's	-0.0000
-1.2284	david glover	-0.0000
-1.1990	david johnson	-0.0000
-1.2231	david jones	-0.0000
-3.3165	david jones's	-0.0000
-1.2109	david miller	+0.0000
-3.3165	david miller's	-0.0000
-1.2375	david milne	+0.0000
-1.3276	david on	+0.0000
-1.2075	david pinker	-0.0000
-3.3165	david pinker's	-0.0000
-1.1973	david smith	-0.0000
-3.3165	david smith's	-0.0000
-1.4593	david today	+0.0000
-1.4926	david tomorrow	+0.0000
-1.1965	david wordsworth	+0.0000
-3.3165	david wordsworth's	-0.0000
-1.2024	david young	-0.0000
-0.6064	david's address	-1.9645
-0.6064	david's email	-1.9211
-0.6064	david's fax	-1.9223
-0.6064	david's telephone	+0.0000
-0.5579	davies </s>	+0.0000
-0.4753	davies and	+0.0167
-0.7675	davies on	+0.0000
-0.9820	davies today	+0.0000
-0.9851	davies tomorrow	+0.0000
-0.6064	davies's address	-1.9645
-0.6064	davies's email	-1.9211
-0.6064	davies's fax	-1.9223
-0.6064	davies's telephone	+0.0000
-2.8978	dial ann	-1.4330
-2.9163	dial anthony	-1.4317
-2.8978	dial bill	-1.4271
-2.8978	dial charles	-1.4311
-2.8978	dial david	-1.4271
-1.7770	dial doctor	+0.0331
-1.1572	dial double	-0.0054
-1.1485	dial eight	-1.4446
-2.8935	dial elaine	-1.4305
-1.1279	dial five	-1.4081
-1.1512	dial four	-1.4229
-2.8935	dial james	-1.4287
-2.8935	dial john	-1.4228
-2.8935	dial keith	-1.4291
-2.8935	dial michael	-1.4400
-2.8935	dial mike	-1.4387
-1.1348	dial nine	-1.4159
-2.8935	dial norman	-1.4466
-0.8441	dial oh	-1.3854
-1.1440	dial one	-1.3981
-2.8935	dial phil	-1.4397
-1.7782	dial professor	-0.0119
-2.8935	dial richard	-1.4338
-1.1326	dial seven	-1.4105
-2.8935	dial simone	-1.4237
-1.1322	dial six	-1.4309
-2.8935	dial steve	-1.4343
-2.8935	dial susan	-1.4501
-2.8935	dial ted	-1.4397
-1.1564	dial three	-1.4085
-2.8935	dial tony	-1.4366
-1.1322	dial two	-1.4341
-2.8935	dial wendy	-1.4305
-1.1236	dial zero	-1.4415
-1.3374	doctor ann	-1.6932
-1.3262	doctor anthony	-1.7291
-1.3225	doctor bill	-1.7128
-1.3135	doctor charles	-1.7193
-1.3262	doctor david	-1.7098
-1.3126	doctor elaine	-1.7109
-1.3225	doctor james	-1.7062
-1.3200	doctor john	-1.7038
-1.3109	doctor keith	-1.6944
-1.3218	doctor michael	-1.7305
-1.2848	doctor mike	-1.6973
-1.3091	doctor norman	-1.7128
-1.3378	doctor phil	-1.7240
-1.0804	doctor richard	-1.7021
-1.3029	doctor simone	-1.6983
-1.3368	doctor steve	-1.6945
-1.3172	doctor susan	-1.7379
-1.3145	doctor ted	-1.7084
-1.3145	doctor tony	-1.7120
-1.3145	doctor wendy	-1.7328
-1.1732	double double	-0.0050
-1.0653	double eight	+0.0125
-1.0705	double five	+0.0115
-1.0734	double four	+0.0159
-1.0614	double nine	+0.0095
-1.0834	double oh	+0.0149
-1.0757	double one	+0.0027
-1.0708	double seven	+0.0194
-1.0725	double six	+0.0135
-1.0938	double three	+0.0199
-1.0750	double two	+0.0187
-1.0762	double zero	+0.0037
-0.8324	eight </s>	+0.0000
-1.2425	eight double	-0.0108
-1.1559	eight eight	+0.0216
-1.1298	eight five	-0.0000
-1.1597	eight four	+0.0070
-1.1446	eight nine	+0.0107
-1.1429	eight oh	+0.0082
-1.1361	eight one	+0.0047
-1.1439	eight seven	+0.0078
-1.1456	eight six	+0.0124
-1.1496	eight three	+0.0089
-1.1260	eight two	+0.0097
-1.1482	eight zero	+0.0078
-1.2157	elaine </s>	+0.0000
-0.8165	elaine and	-0.0152
-1.2089	elaine carlton	+0.0000
-3.3213	elaine carlton's	-0.0000
-1.2140	elaine davies	+0.0000
-3.3213	elaine davies's	-0.0000
-1.2460	elaine glover	-0.0000
-1.1963	elaine johnson	-0.0000
-1.2261	elaine jones	-0.0000
-3.3213	elaine jones's	-0.0000
-1.2200	elaine miller	+0.0000
-3.3213	elaine miller's	-0.0000
-1.2191	elaine milne	+0.0000
-1.3169	elaine on	+0.0000
-1.2191	elaine pinker	-0.0000
-3.3213	elaine pinker's	-0.0000
-1.1755	elaine smith	-0.0000
-3.3213	elaine smith's	-0.0000
-1.4687	elaine today	+0.0000
-1.5040	elaine tomorrow	+0.0000
-1.2332	elaine wordsworth	+0.0000
-3.3213	elaine wordsworth's	-0.0000
-1.2165	elaine young	-0.0000
-0.6064	elaine's address	-1.9645
-0.6064	elaine's email	-1.9211
-0.6064	elaine's fax	-1.9223
-0.6064	elaine's telephone	+0.0000
-0.7794	email address	-0.0000
-0.0842	email to	-0.0006
-0.7857	fax number	+0.0000
-0.0829	fax to	+0.0052
-0.0044	find me	-1.8595
-0.4815	first appointment	+0.5441
-0.1761	first meeting	-2.5433
-0.8369	five </s>	+0.0000
-1.2547	five double	-0.0142
-1.1464	five eight	+0.0127
-1.1306	five five	+0.0134
-1.1509	five four	+0.0115
-1.1389	five nine	+0.0100
-1.1309	five oh	+0.0231
-1.1380	five one	+0.0084
-1.1438	five seven	+0.0098
-1.1431	five six	-0.0019
-1.1462	five three	+0.0137
-1.1475	five two	+0.0024
-1.1471	five zero	+0.0122
-0.8283	four </s>	+0.0000
-1.2341	four double	+0.0107
-1.1680	four eight	-0.0036
-1.1534	four five	+0.0024
-1.1441	four four	+0.0113
-1.1353	four nine	+0.0093
-1.1524	four oh	+0.0074
-1.1468	four one	+0.0125
-1.1461	four seven	+0.0107
-1.1288	four six	+0.0157
-1.1416	four three	+0.0033
-1.1320	four two	+0.0092
-1.1493	four zero	+0.0090
-0.1505	free on	+0.0000
-0.8495	free today	+0.0000
-0.8495	free tomorrow	+0.0000
-0.0044	friday </s>	+0.0000
-0.0044	get me	+0.0640
-0.5618	glover </s>	+0.0000
-0.4754	glover and	+0.0326
-0.7552	glover on	+0.0000
-0.9832	glover today	+0.0000
-0.9938	glover tomorrow	+0.0000
-0.0044	how long	+0.0000
-0.0044	i free	+0.0000
-0.0044	interview with	-0.0001
-2.0457	is ann	-1.9986
-2.8952	is ann's	-0.0000
-2.0457	is anthony	-1.9986
-2.8952	is anthony's	-0.0000
-2.0457	is bill	-1.9985
-2.8952	is bill's	-0.0000
-2.0457	is charles	-1.9986
-2.8952	is charles's	-0.0000
-2.0457	is david	-1.9985
-2.8952	is david's	-0.0000
-2.0457	is elaine	-1.9985
-2.8952	is elaine's	-0.0000
-2.0457	is james	-1.9986
-2.8952	is james's	-0.0000
-2.0457	is john	-1.9985
-2.8952	is john's	-0.0000
-2.0615	is keith	-1.9986
-2.0457	is michael	-1.9986
-2.8952	is michael's	-0.0000
-2.0457	is mike	-1.9986
-2.8952	is mike's	-0.0000
-0.0991	is my	-0.0000
-2.0457	is norman	-1.9986
-2.8952	is norman's	-0.0000
-2.0457	is phil	-1.9985
-2.8952	is phil's	-0.0000
-2.0457	is richard	-1.9991
-2.8952	is richard's	-0.0000
-2.0457	is simone	-1.9986
-2.8952	is simone's	-0.0000
-2.0457	is steve	-1.9985
-2.8952	is steve's	-0.0000
-2.0457	is susan	-1.9986
-2.8952	is susan's	-0.0000
-2.0457	is ted	-1.9985
-2.8952	is ted's	-0.0000
-2.0457	is tony	-1.9986
-2.8952	is tony's	-0.0000
-2.0457	is wendy	-1.9986
-2.8952	is wendy's	-0.0000
-1.2247	james </s>	+0.0000
-0.8151	james and	-0.0403
-1.2001	james carlton	+0.0000
-3.3225	james carlton's	-0.0000
-1.2187	james davies	+0.0000
-3.3225	james davies's	-0.0000
-1.1992	james glover	-0.0000
-1.2256	james johnson	-0.0000
-1.2187	james jones	-0.0000
-3.3225	james jones's	-0.0000
-1.2318	james miller	+0.0000
-3.3225	james miller's	-0.0000
-1.2300	james milne	+0.0000
-1.3532	james on	+0.0000
-1.2051	james pinker	-0.0000
-3.3225	james pinker's	-0.0000
-1.1903	james smith	-0.0000
-3.3225	james smith's	-0.0000
-1.4825	james today	+0.0000
-1.4608	james tomorrow	+0.0000
-1.2178	james wordsworth	+0.0000
-3.3225	james wordsworth's	-0.0000
-1.2187	james young	-0.0000
-0.6064	james's address	-1.9645
-0.6064	james's email	-1.9211
-0.6064	james's fax	-1.9223
-0.6064	james's telephone	+0.0000
-1.2177	john </s>	+0.0000
-0.8161	john and	-0.0416
-1.2211	john carlton	+0.0000
-3.3215	john carlton's	-0.0000
-1.2041	john davies	+0.0000
-3.3215	john davies's	-0.0000
-1.2185	john glover	-0.0000
-1.2177	john johnson	-0.0000
-1.1991	john jones	-0.0000
-3.3215	john jones's	-0.0000
-1.2066	john miller	+0.0000
-3.3215	john miller's	-0.0000
-1.2117	john milne	+0.0000
-1.3727	john on	+0.0000
-1.2159	john pinker	-0.0000
-3.3215	john pinker's	-0.0000
-1.1852	john smith	-0.0000
-3.3215	john smith's	-0.0000
-1.4705	john today	+0.0000
-1.4895	john tomorrow	+0.0000
-1.2299	john wordsworth	+0.0000
-3.3215	john wordsworth's	-0.0000
-1.2273	john young	-0.0000
-0.6064	john's address	-1.9645
-0.6064	john's email	-1.9211
-0.6064	john's fax	-1.9223
-0.6064	john's telephone	+0.0000
-0.5614	johnson </s>	+0.0000
-0.4776	johnson and	+0.0183
-0.7608	johnson on	+0.0000
-0.9854	johnson today	+0.0000
-0.9763	johnson tomorrow	+0.0000
-0.5672	jones </s>	+0.0000
-0.4851	jones and	+0.0257
-0.7533	jones on	+0.0000
-0.9683	jones today	+0.0000
-0.9675	jones tomorrow	+0.0000
-0.6064	jones's address	-1.9645
-0.6064	jones's email	-1.9211
-0.6064	jones's fax	-1.9223
-0.6064	jones's telephone	+0.0000
-1.2481	keith </s>	+0.0000
-0.8106	keith and	-0.0412
-1.2136	keith carlton	+0.0000
-3.3235	keith carlton's	-0.0000
-1.2179	keith davies	+0.0000
-3.3235	keith davies's	-0.0000
-1.1961	keith glover	-0.0000
-1.2381	keith johnson	-0.0000
-1.2266	keith jones	-0.0000
-3.3235	keith jones's	-0.0000
-1.1994	keith miller	+0.0000
-3.3235	keith miller's	-0.0000
-1.1953	keith milne	+0.0000
-1.3589	keith on	+0.0000
-1.2187	keith pinker	-0.0000
-3.4484	keith pinker's	-1.3946
-1.2127	keith smith	-0.0000
-3.3235	keith smith's	-0.0000
-1.4603	keith today	+0.0000
-1.4914	keith tomorrow	+0.0000
-1.2179	keith wordsworth	+0.0000
-3.3235	keith wordsworth's	-0.0000
-1.1994	keith young	-0.0000
-0.4815	last appointment	+0.5441
-0.1761	last meeting	-2.5433
-0.0044	letter to	+0.0037
-0.0044	long is	-1.3099
-3.0501	me ann	-1.4330
-3.0501	me anthony	-1.4317
-3.0501	me bill	-1.4271
-3.0501	me charles	-1.4311
-3.0501	me david	-1.4271
-1.9404	me doctor	+0.0249
-1.2826	me double	+0.0160
-1.2703	me eight	-1.4138
-3.0457	me elaine	-1.4305
-1.2864	me five	-1.3966
-1.2814	me four	-1.4322
-3.0457	me james	-1.4287
-3.0457	me john	-1.4228
-3.0457	me keith	-1.4291
-3.0457	me michael	-1.4400
-3.0457	me mike	-1.4387
-1.2886	me nine	-1.4257
-3.0457	me norman	-1.4466
-0.9768	me oh	-1.3899
-1.2724	me one	-1.3994
-3.0457	me phil	-1.4397
-1.9263	me professor	-0.0160
-3.0457	me richard	-1.4338
-1.2972	me seven	-1.4117
-3.0457	me simone	-1.4237
-1.2697	me six	-1.4331
-3.0457	me steve	-1.4343
-3.0457	me susan	-1.4501
-3.0457	me ted	-1.4397
-0.5584	me the	-1.9079
-1.2774	me three	-1.4042
-3.0457	me tony	-1.4366
-1.2746	me two	-1.4115
-3.0457	me wendy	-1.4305
-1.2902	me zero	-1.4244
-2.8767	meeting on	+0.0000
-3.5800	meeting today	+0.0000
-3.7050	meeting tomorrow	+0.0000
-0.0008	meeting with	+0.0076
-1.2257	michael </s>	+0.0000
-0.8066	michael and	-0.0230
-1.2292	michael carlton	+0.0000
-3.3278	michael carlton's	-0.0000
-1.2037	michael davies	+0.0000
-3.3278	michael davies's	-0.0000
-1.2070	michael glover	-0.0000
-1.2327	michael johnson	-0.0000
-1.2318	michael jones	-0.0000
-3.3278	michael jones's	-0.0000
-1.2004	michael miller	+0.0000
-3.3278	michael miller's	-0.0000
-1.2534	michael milne	+0.0000
-1.3138	michael on	+0.0000
-1.2154	michael pinker	-0.0000
-3.3278	michael pinker's	-0.0000
-1.1955	michael smith	-0.0000
-3.3278	michael smith's	-0.0000
-1.4958	michael today	+0.0000
-1.4498	michael tomorrow	+0.0000
-1.2265	michael wordsworth	+0.0000
-3.3278	michael wordsworth's	-0.0000
-1.2112	michael young	-0.0000
-0.6064	michael's address	-1.9645
-0.6064	michael's email	-1.9211
-0.6064	michael's fax	-1.9223
-0.6064	michael's telephone	+0.0000
-1.2310	mike </s>	+0.0000
-0.8042	mike and	-0.0444
-1.1957	mike carlton	+0.0000
-3.3288	mike carlton's	-0.0000
-1.2180	mike davies	+0.0000
-3.3288	mike davies's	-0.0000
-1.2362	mike glover	-0.0000
-1.1916	mike johnson	-0.0000
-1.2345	mike jones	-0.0000
-3.3288	mike jones's	-0.0000
-1.2223	mike miller	+0.0000
-3.3288	mike miller's	-0.0000
-1.2275	mike milne	+0.0000
-1.3211	mike on	+0.0000
-1.2223	mike pinker	-0.0000
-3.3288	mike pinker's	-0.0000
-1.2206	mike smith	-0.0000
-3.3288	mike smith's	-0.0000
-1.4855	mike today	+0.0000
-1.4701	mike tomorrow	+0.0000
-1.2079	mike wordsworth	+0.0000
-3.3288	mike wordsworth's	-0.0000
-1.2180	mike young	-0.0000
-0.6064	mike's address	-1.9645
-0.6064	mike's email	-1.9211
-0.6064	mike's fax	-1.9223
-0.6064	mike's telephone	+0.0000
-0.5612	miller </s>	+0.0000
-0.4736	miller and	+0.0266
-0.7663	miller on	+0.0000
-0.9906	miller today	+0.0000
-0.9753	miller tomorrow	+0.0000
-0.6064	miller's address	-1.9645
-0.6064	miller's email	-1.9211
-0.6064	miller's fax	-1.9223
-0.6064	miller's telephone	+0.0000
-0.5545	milne </s>	+0.0000
-0.4826	milne and	+0.0309
-0.7733	milne on	+0.0000
-0.9686	milne today	+0.0000
-0.9752	milne tomorrow	+0.0000
-0.0044	monday </s>	+0.0000
-2.0759	my first	+0.0000
-2.0759	my last	+0.0000
-0.0118	my meeting	+0.7463
-0.8298	nine </s>	+0.0000
-1.2471	nine double	+0.0071
-1.1422	nine eight	+0.0074
-1.1405	nine five	+0.0143
-1.1572	nine four	+0.0018
-1.1451	nine nine	+0.0166
-1.1362	nine oh	+0.0119
-1.1406	nine one	-0.0011
-1.1327	nine seven	+0.0242
-1.1519	nine six	+0.0114
-1.1427	nine three	+0.0144
-1.1483	nine two	+0.0128
-1.1463	nine zero	+0.0036
-1.2520	norman </s>	+0.0000
-0.8062	norman and	-0.0382
-1.2166	norman carlton	+0.0000
-3.3264	norman carlton's	-0.0000
-1.2191	norman davies	+0.0000
-3.3264	norman davies's	-0.0000
-1.2322	norman glover	-0.0000
-1.2348	norman johnson	-0.0000
-1.2073	norman jones	-0.0000
-3.3264	norman jones's	-0.0000
-1.2031	norman miller	+0.0000
-3.3264	norman miller's	-0.0000
-1.1941	norman milne	+0.0000
-1.3167	norman on	+0.0000
-1.2330	norman pinker	-0.0000
-3.3264	norman pinker's	-0.0000
-1.2106	norman smith	-0.0000
-3.3264	norman smith's	-0.0000
-1.4558	norman today	+0.0000
-1.4342	norman tomorrow	+0.0000
-1.2474	norman wordsworth	+0.0000
-3.3264	norman wordsworth's	-0.0000
-1.2132	norman young	-0.0000
-0.6064	norman's address	-1.9645
-0.6064	norman's email	-1.9211
-0.6064	norman's fax	-1.9223
-0.6064	norman's telephone	+0.0000
-1.1048	number </s>	+0.0000
-0.0403	number of	-0.0020
-1.5932	of ann	-1.6704
-1.5932	of anthony	-1.6691
-1.5909	of bill	-1.6589
-1.5886	of charles	-1.6652
-1.6001	of david	-1.6655
-0.6164	of doctor	+0.0047
-1.5978	of elaine	-1.6593
-1.5888	of james	-1.6621
-1.5866	of john	-1.6546
-1.5888	of keith	-1.6586
-1.5888	of michael	-1.6773
-1.5888	of mike	-1.6721
-1.5843	of norman	-1.6807
-1.5911	of phil	-1.6708
-0.6211	of professor	-0.0075
-1.5843	of richard	-1.6679
-1.5911	of simone	-1.6587
-1.5866	of steve	-1.6661
-1.5866	of susan	-1.6858
-1.5843	of ted	-1.6738
-1.5866	of tony	-1.6684
-1.5866	of wendy	-1.6623
-0.8787	oh </s>	+0.0000
-1.2979	oh double	-0.0091
-1.1221	oh eight	-0.0099
-1.1109	oh five	-0.0082
-1.1303	oh four	-0.0139
-1.1198	oh nine	-0.0034
-1.2058	oh oh	+0.0203
-1.1144	oh one	-0.0026
-1.1217	oh seven	-0.0033
-1.1091	oh six	-0.0039
-1.1147	oh three	-0.0006
-1.1168	oh two	-0.0056
-1.1985	oh zero	+0.0035
-0.7074	on friday	+0.0000
-0.7003	on monday	-0.0000
-0.6979	on thursday	+0.0000
-0.7048	on tuesday	+0.0000
-0.7064	on wednesday	+0.0000
-0.8414	one </s>	+0.0000
-1.2344	one double	-0.0044
-1.1391	one eight	+0.0115
-1.1464	one five	+0.0074
-1.1421	one four	+0.0173
-1.1496	one nine	+0.0059
-1.1539	one oh	+0.0091
-1.1407	one one	+0.0139
-1.1376	one seven	+0.0043
-1.1325	one six	+0.0110
-1.1450	one three	+0.0087
-1.1476	one two	+0.0026
-1.1354	one zero	+0.0132
-1.2216	phil </s>	+0.0000
-0.8035	phil and	-0.0337
-1.2313	phil carlton	+0.0000
-3.3211	phil carlton's	-0.0000
-1.2216	phil davies	+0.0000
-3.3211	phil davies's	-0.0000
-1.2207	phil glover	-0.0000
-1.2286	phil johnson	-0.0000
-1.2028	phil jones	-0.0000
-3.3211	phil jones's	-0.0000
-1.2242	phil miller	+0.0000
-3.3211	phil miller's	-0.0000
-1.1848	phil milne	+0.0000
-1.3402	phil on	+0.0000
-1.2349	phil pinker	-0.0000
-3.3211	phil pinker's	-0.0000
-1.2251	phil smith	-0.0000
-3.3211	phil smith's	-0.0000
-1.4640	phil today	+0.0000
-1.4609	phil tomorrow	+0.0000
-1.2138	phil wordsworth	+0.0000
-3.3211	phil wordsworth's	-0.0000
-1.2207	phil young	-0.0000
-0.6064	phil's address	-1.9645
-0.6064	phil's email	-1.9211
-0.6064	phil's fax	-1.9223
-0.6064	phil's telephone	+0.0000
-3.1261	phone ann	-1.4330
-3.1261	phone anthony	-1.4317
-3.1261	phone bill	-1.4271
-0.4123	phone call	-1.7836
-3.1261	phone charles	-1.4311
-3.1261	phone david	-1.4271
-2.0094	phone doctor	+0.0099
-1.3671	phone double	+0.0046
-1.3512	phone eight	-1.4360
-3.1217	phone elaine	-1.4305
-1.3596	phone five	-1.3995
-1.3646	phone four	-1.4293
-3.1217	phone james	-1.4287
-3.1217	phone john	-1.4228
-3.1217	phone keith	-1.4291
-3.1217	phone michael	-1.4400
-3.1217	phone mike	-1.4387
-1.3690	phone nine	-1.4252
-3.1217	phone norman	-1.4466
-1.0557	phone oh	-1.3742
-1.3349	phone one	-1.4023
-3.1217	phone phil	-1.4397
-2.0148	phone professor	+0.0129
-3.1217	phone richard	-1.4338
-1.3466	phone seven	-1.4079
-3.1217	phone simone	-1.4237
-1.3497	phone six	-1.3935
-3.1217	phone steve	-1.4343
-3.1217	phone susan	-1.4501
-3.1217	phone ted	-1.4397
-1.3439	phone three	-1.3994
-3.1217	phone tony	-1.4366
-1.3605	phone two	-1.3908
-3.1217	phone wendy	-1.4305
-1.3515	phone zero	-1.4397
-0.5657	pinker </s>	+0.0000
-0.4775	pinker and	+0.0195
-0.7611	pinker on	+0.0000
-0.9792	pinker today	+0.0000
-0.9711	pinker tomorrow	+0.0000
-0.6010	pinker's address	-1.9645
-0.6232	pinker's email	-1.9211
-0.6010	pinker's fax	-1.9223
-0.6010	pinker's telephone	+0.0000
-0.7218	please arrange	-0.0000
-1.0656	please call	-2.4350
-0.7172	please cancel	+0.0000
-1.0760	please dial	+0.1411
-1.3123	please find	+0.0000
-0.8726	please get	+0.0000
-1.0664	please phone	-2.4760
-0.7654	please send	-0.0000
-1.2914	professor ann	-1.7354
-1.3035	professor anthony	-1.7193
-1.3204	professor bill	-1.7069
-1.3105	professor charles	-1.6992
-1.3268	professor david	-1.7353
-1.3351	professor elaine	-1.7074
-1.3268	professor james	-1.7229
-1.3097	professor john	-1.7062
-1.3088	professor keith	-1.7109
-1.3451	professor michael	-1.7198
-1.3298	professor mike	-1.7210
-1.3133	professor norman	-1.7203
-1.3242	professor phil	-1.7160
-1.0949	professor richard	-1.7128
-1.3224	professor simone	-1.7251
-1.3233	professor steve	-1.7043
-1.3270	professor susan	-1.7542
-1.3079	professor ted	-1.7226
-1.2974	professor tony	-1.7105
-1.2991	professor wendy	-1.7327
-1.2925	richard </s>	+0.0000
-0.8128	richard and	-0.0639
-1.2004	richard carlton	+0.0000
-3.5521	richard carlton's	-0.0000
-1.1995	richard davies	+0.0000
-3.5521	richard davies's	-0.0000
-1.2334	richard glover	-0.0000
-1.2138	richard johnson	-0.0000
-1.2209	richard jones	-0.0000
-3.5521	richard jones's	-0.0000
-1.1980	richard miller	+0.0000
-3.5521	richard miller's	-0.0000
-1.2169	richard milne	+0.0000
-1.3192	richard on	+0.0000
-1.2054	richard pinker	-0.0000
-3.5521	richard pinker's	-0.0000
-1.2179	richard smith	-0.0000
-3.5521	richard smith's	-0.0000
-1.4614	richard today	+0.0000
-1.4796	richard tomorrow	+0.0000
-1.2179	richard wordsworth	+0.0000
-3.5521	richard wordsworth's	-0.0000
-1.1932	richard young	-0.0000
-0.6064	richard's address	-1.9645
-0.6064	richard's email	-1.9211
-0.6064	richard's fax	-1.9223
-0.6064	richard's telephone	+0.0000
-0.0044	seminar with	-0.0043
-0.1789	send a	-1.7458
-0.4846	send an	-1.5899
-0.8387	seven </s>	+0.0000
-1.2415	seven double	-0.0061
-1.1380	seven eight	+0.0079
-1.1478	seven five	+0.0116
-1.1479	seven four	+0.0172
-1.1511	seven nine	+0.0109
-1.1430	seven oh	+0.0218
-1.1450	seven one	+0.0011
-1.1395	seven seven	-0.0013
-1.1483	seven six	+0.0017
-1.1423	seven three	+0.0061
-1.1345	seven two	+0.0147
-1.1321	seven zero	+0.0201
-1.2309	simone </s>	+0.0000
-0.8236	simone and	-0.0233
-1.2037	simone carlton	+0.0000
-3.3269	simone carlton's	-0.0000
-1.1898	simone davies	+0.0000
-3.3269	simone davies's	-0.0000
-1.1995	simone glover	-0.0000
-1.2188	simone johnson	-0.0000
-1.2213	simone jones	-0.0000
-3.3269	simone jones's	-0.0000
-1.2470	simone miller	+0.0000
-3.3269	simone miller's	-0.0000
-1.2078	simone milne	+0.0000
-1.3403	simone on	+0.0000
-1.2327	simone pinker	-0.0000
-3.3269	simone pinker's	-0.0000
-1.2213	simone smith	-0.0000
-3.3269	simone smith's	-0.0000
-1.4981	simone today	+0.0000
-1.4637	simone tomorrow	+0.0000
-1.1867	simone wordsworth	+0.0000
-3.3269	simone wordsworth's	-0.0000
-1.2012	simone young	-0.0000
-0.6064	simone's address	-1.9645
-0.6064	simone's email	-1.9211
-0.6064	simone's fax	-1.9223
-0.6064	simone's telephone	+0.0000
-0.8327	six </s>	+0.0000
-1.2389	six double	+0.0102
-1.1535	six eight	+0.0061
-1.1345	six five	+0.0111
-1.1390	six four	+0.0071
-1.1570	six nine	+0.0140
-1.1404	six oh	+0.0190
-1.1425	six one	+0.0086
-1.1365	six seven	-0.0054
-1.1443	six six	+0.0132
-1.1573	six three	+0.0131
-1.1413	six two	+0.0059
-1.1381	six zero	+0.0163
-0.5646	smith </s>	+0.0000
-0.4727	smith and	+0.0252
-0.7789	smith on	+0.0000
-0.9778	smith today	+0.0000
-0.9621	smith tomorrow	+0.0000
-0.6064	smith's address	-1.9645
-0.6064	smith's email	-1.9211
-0.6064	smith's fax	-1.9223
-0.6064	smith's telephone	+0.0000
-1.2358	steve </s>	+0.0000
-0.8058	steve and	-0.0259
-1.2121	steve carlton	+0.0000
-3.3194	steve carlton's	-0.0000
-1.2358	steve davies	+0.0000
-3.3194	steve davies's	-0.0000
-1.2078	steve glover	-0.0000
-1.2395	steve johnson	-0.0000
-1.2053	steve jones	-0.0000
-3.3194	steve jones's	-0.0000
-1.1799	steve miller	+0.0000
-3.3194	steve miller's	-0.0000
-1.1904	steve milne	+0.0000
-1.3548	steve on	+0.0000
-1.2172	steve pinker	-0.0000
-3.3194	steve pinker's	-0.0000
-1.2287	steve smith	-0.0000
-3.3194	steve smith's	-0.0000
-1.4746	steve today	+0.0000
-1.4638	steve tomorrow	+0.0000
-1.2313	steve wordsworth	+0.0000
-3.3194	steve wordsworth's	-0.0000
-1.2242	steve young	-0.0000
-0.6064	steve's address	-1.9645
-0.6064	steve's email	-1.9211
-0.6064	steve's fax	-1.9223
-0.6064	steve's telephone	+0.0000
-1.2237	susan </s>	+0.0000
-0.8057	susan and	-0.0456
-1.2423	susan carlton	+0.0000
-3.3249	susan carlton's	-0.0000
-1.2387	susan davies	+0.0000
-3.3249	susan davies's	-0.0000
-1.2378	susan glover	-0.0000
-1.2219	susan johnson	-0.0000
-1.2125	susan jones	-0.0000
-3.3249	susan jones's	-0.0000
-1.2298	susan miller	+0.0000
-3.3249	susan miller's	-0.0000
-1.2159	susan milne	+0.0000
-1.3056	susan on	+0.0000
-1.2193	susan pinker	-0.0000
-3.3249	susan pinker's	-0.0000
-1.2041	susan smith	-0.0000
-3.3249	susan smith's	-0.0000
-1.4134	susan today	+0.0000
-1.4678	susan tomorrow	+0.0000
-1.2100	susan wordsworth	+0.0000
-3.3249	susan wordsworth's	-0.0000
-1.2219	susan young	-0.0000
-0.6064	susan's address	-1.9645
-0.6064	susan's email	-1.9211
-0.6064	susan's fax	-1.9223
-0.6064	susan's telephone	+0.0000
-1.2289	ted </s>	+0.0000
-0.8123	ted and	-0.0470
-1.2333	ted carlton	+0.0000
-3.3205	ted carlton's	-0.0000
-1.2106	ted davies	+0.0000
-3.3205	ted davies's	-0.0000
-1.2055	ted glover	-0.0000
-1.2271	ted johnson	-0.0000
-1.2369	ted jones	-0.0000
-3.3205	ted jones's	-0.0000
-1.2123	ted miller	+0.0000
-3.3205	ted miller's	-0.0000
-1.2175	ted milne	+0.0000
-1.3216	ted on	+0.0000
-1.2115	ted pinker	-0.0000
-3.3205	ted pinker's	-0.0000
-1.2072	ted smith	-0.0000
-3.3205	ted smith's	-0.0000
-1.4498	ted today	+0.0000
-1.4603	ted tomorrow	+0.0000
-1.2175	ted wordsworth	+0.0000
-3.3205	ted wordsworth's	-0.0000
-1.2210	ted young	-0.0000
-0.6064	ted's address	-1.9645
-0.6064	ted's email	-1.9211
-0.6064	ted's fax	-1.9223
-0.6064	ted's telephone	+0.0000
-0.0044	teleconference with	-0.0028
-0.0044	telephone number	+0.0000
-1.3269	the address	-0.9467
-1.3177	the email	-1.9211
-1.3208	the fax	-1.9223
-0.7990	the interview	+0.0000
-0.7875	the meeting	+0.7463
-0.8010	the phone	-1.7875
-0.7927	the seminar	+0.0000
-0.7965	the teleconference	-0.0000
-1.3181	the telephone	+0.0000
-0.8371	three </s>	+0.0000
-1.2504	three double	+0.0053
-1.1655	three eight	+0.0153
-1.1601	three five	-0.0016
-1.1536	three four	-0.0006
-1.1367	three nine	+0.0018
-1.1297	three oh	+0.0329
-1.1377	three one	+0.0036
-1.1297	three seven	+0.0073
-1.1293	three six	+0.0021
-1.1422	three three	-0.0086
-1.1373	three two	-0.0119
-1.1451	three zero	-0.0041
-0.0044	thursday </s>	+0.0000
-1.3545	to ann	-1.2607
-1.3628	to anthony	-1.2632
-1.3595	to bill	-1.2518
-1.3530	to charles	-1.2671
-1.3612	to david	-1.2606
-1.4158	to doctor	-0.0075
-1.3572	to elaine	-1.2593
-1.3518	to james	-1.2515
-1.3474	to john	-1.2366
-1.3574	to keith	-1.2456
-1.3435	to michael	-1.2583
-1.3478	to mike	-1.2583
-1.3494	to norman	-1.2817
-1.3456	to phil	-1.2681
-1.4047	to professor	+0.0012
-1.1181	to richard	-1.2713
-1.3499	to simone	-1.2440
-1.3494	to steve	-1.2511
-1.3581	to susan	-1.2901
-1.3582	to ted	-1.2726
-1.3515	to tony	-1.2698
-1.3481	to wendy	-1.2453
-0.0044	today </s>	+0.0000
-0.0044	tomorrow </s>	+0.0000
-1.2339	tony </s>	+0.0000
-0.8154	tony and	-0.0516
-1.2104	tony carlton	+0.0000
-3.3228	tony carlton's	-0.0000
-1.2190	tony davies	+0.0000
-3.3228	tony davies's	-0.0000
-1.2172	tony glover	-0.0000
-1.2268	tony johnson	-0.0000
-1.2121	tony jones	-0.0000
-3.3228	tony jones's	-0.0000
-1.2172	tony miller	+0.0000
-3.3228	tony miller's	-0.0000
-1.2268	tony milne	+0.0000
-1.3500	tony on	+0.0000
-1.1987	tony pinker	-0.0000
-3.3228	tony pinker's	-0.0000
-1.2503	tony smith	-0.0000
-3.3228	tony smith's	-0.0000
-1.4020	tony today	+0.0000
-1.4860	tony tomorrow	+0.0000
-1.1890	tony wordsworth	+0.0000
-3.3228	tony wordsworth's	-0.0000
-1.2155	tony young	-0.0000
-0.6064	tony's address	-1.9645
-0.6064	tony's email	-1.9211
-0.6064	tony's fax	-1.9223
-0.6064	tony's telephone	+0.0000
-0.0044	tuesday </s>	+0.0000
-0.8362	two </s>	+0.0000
-1.2550	two double	+0.0072
-1.1574	two eight	+0.0139
-1.1506	two five	+0.0156
-1.1404	two four	+0.0126
-1.1406	two nine	+0.0102
-1.1455	two oh	+0.0205
-1.1442	two one	+0.0007
-1.1508	two seven	+0.0035
-1.1337	two six	-0.0011
-1.1270	two three	+0.0077
-1.1434	two two	+0.0131
-1.1308	two zero	+0.0037
-0.0044	wednesday </s>	+0.0000
-1.2188	wendy </s>	+0.0000
-0.8094	wendy and	-0.0355
-1.1833	wendy carlton	+0.0000
-3.3244	wendy carlton's	-0.0000
-1.2119	wendy davies	+0.0000
-3.3244	wendy davies's	-0.0000
-1.2546	wendy glover	-0.0000
-1.1937	wendy johnson	-0.0000
-1.2248	wendy jones	-0.0000
-3.3244	wendy jones's	-0.0000
-1.2128	wendy miller	+0.0000
-3.3244	wendy miller's	-0.0000
-1.2266	wendy milne	+0.0000
-1.3645	wendy on	+0.0000
-1.2153	wendy pinker	-0.0000
-3.3244	wendy pinker's	-0.0000
-1.2205	wendy smith	-0.0000
-3.3244	wendy smith's	-0.0000
-1.4687	wendy today	+0.0000
-1.4703	wendy tomorrow	+0.0000
-1.2354	wendy wordsworth	+0.0000
-3.3244	wendy wordsworth's	-0.0000
-1.1937	wendy young	-0.0000
-0.6064	wendy's address	-1.9645
-0.6064	wendy's email	-1.9211
-0.6064	wendy's fax	-1.9223
-0.6064	wendy's telephone	+0.0000
-0.0044	what is	-2.8229
-0.7033	when am	+0.0000
-0.0969	when is	-1.3099
-1.3658	with ann	-0.9831
-1.3701	with anthony	-0.9885
-1.3841	with bill	-0.9876
-1.3704	with charles	-0.9683
-1.3841	with david	-0.9665
-1.2441	with doctor	-0.0022
-1.3734	with elaine	-0.9957
-1.3639	with james	-0.9857
-1.3689	with john	-0.9857
-1.3633	with keith	-0.9640
-1.3614	with michael	-0.9844
-1.3617	with mike	-0.9738
-1.3605	with norman	-0.9605
-1.3708	with phil	-0.9773
-1.2383	with professor	+0.0058
-1.1569	with richard	-0.8977
-1.3571	with simone	-0.9809
-1.3708	with steve	-0.9803
-1.3672	with susan	-0.9826
-1.3760	with ted	-0.9757
-1.3749	with tony	-0.9751
-1.3673	with wendy	-0.9830
-0.5636	wordsworth </s>	+0.0000
-0.4797	wordsworth and	+0.0221
-0.7635	wordsworth on	+0.0000
-0.9745	wordsworth today	+0.0000
-0.9703	wordsworth tomorrow	+0.0000
-0.6064	wordsworth's address	-1.9645
-0.6064	wordsworth's email	-1.9211
-0.6064	wordsworth's fax	-1.9223
-0.6064	wordsworth's telephone	+0.0000
-0.5561	young </s>	+0.0000
-0.4853	young and	+0.0249
-0.7654	young on	+0.0000
-0.9660	young today	+0.0000
-0.9778	young tomorrow	+0.0000
-0.8215	zero </s>	+0.0000
-1.2372	zero double	-0.0043
-1.1568	zero eight	+0.0165
-1.1480	zero five	+0.0049
-1.1580	zero four	+0.0117
-1.1546	zero nine	+0.0073
-1.1542	zero oh	+0.0275
-1.1364	zero one	+0.0143
-1.1378	zero seven	+0.0080
-1.1379	zero six	+0.0136
-1.1556	zero three	-0.0029
-1.1406	zero two	+0.0127
-1.1294	zero zero	+0.0030

\3-grams:
-0.8391	</s> <s> arrange
-1.0281	</s> <s> call
-0.8443	</s> <s> cancel
-1.0382	</s> <s> dial
-1.8796	</s> <s> find
-0.9676	</s> <s> get
-1.8696	</s> <s> how
-1.0205	</s> <s> phone
-0.8443	</s> <s> please
-0.8419	</s> <s> send
-2.4512	</s> <s> what
-3.7099	</s> <s> when
-0.1009	<s> arrange a
-0.7050	<s> arrange an
-3.1555	<s> call ann
-3.1555	<s> call anthony
-3.1555	<s> call bill
-3.1555	<s> call charles
-3.1555	<s> call david
-1.8922	<s> call doctor
-1.1164	<s> call double
-1.1358	<s> call eight
-3.1511	<s> call elaine
-1.1310	<s> call five
-1.1323	<s> call four
-3.1511	<s> call james
-3.1511	<s> call john
-3.1511	<s> call keith
-3.1511	<s> call michael
-3.1511	<s> call mike
-1.1107	<s> call nine
-3.1511	<s> call norman
-0.8371	<s> call oh
-1.1244	<s> call one
-3.1511	<s> call phil
-1.8918	<s> call professor
-3.1511	<s> call richard
-1.1358	<s> call seven
-3.1889	<s> call simone
-1.1272	<s> call six
-3.1511	<s> call steve
-3.1511	<s> call susan
-3.1511	<s> call ted
-1.1214	<s> call three
-3.1511	<s> call tony
-1.1573	<s> call two
-3.1511	<s> call wendy
-1.1489	<s> call zero
-0.0044	<s> cancel the
-3.1453	<s> dial ann
-3.1453	<s> dial anthony
-3.1453	<s> dial bill
-3.1453	<s> dial charles
-3.1453	<s> dial david
-1.8841	<s> dial doctor
-1.1468	<s> dial double
-1.1442	<s> dial eight
-3.1410	<s> dial elaine
-1.1260	<s> dial five
-1.1483	<s> dial four
-3.1410	<s> dial james
-3.1410	<s> dial john
-3.1410	<s> dial keith
-3.1410	<s> dial michael
-3.1410	<s> dial mike
-1.1281	<s> dial nine
-3.1410	<s> dial norman
-0.8324	<s> dial oh
-1.1345	<s> dial one
-3.1410	<s> dial phil
-1.8837	<s> dial professor
-3.1410	<s> dial richard
-1.1278	<s> dial seven
-3.1410	<s> dial simone
-1.1184	<s> dial six
-3.1410	<s> dial steve
-3.1410	<s> dial susan
-3.1410	<s> dial ted
-1.1490	<s> dial three
-3.1410	<s> dial tony
-1.1194	<s> dial two
-3.1410	<s> dial wendy
-1.1126	<s> dial zero
-0.0044	<s> find me
-0.0044	<s> get me
-0.0044	<s> how long
-3.1587	<s> phone ann
-3.1587	<s> phone anthony
-3.1587	<s> phone bill
-3.1587	<s> phone charles
-3.1587	<s> phone david
-1.8995	<s> phone doctor
-1.1484	<s> phone double
-1.1280	<s> phone eight
-3.1544	<s> phone elaine
-1.1370	<s> phone five
-1.1412	<s> phone four
-3.1544	<s> phone james
-3.1544	<s> phone john
-3.1544	<s> phone keith
-3.1544	<s> phone michael
-3.1544	<s> phone mike
-1.1444	<s> phone nine
-3.1544	<s> phone norman
-0.8351	<s> phone oh
-1.1143	<s> phone one
-3.1544	<s> phone phil
-1.8951	<s> phone professor
-3.1544	<s> phone richard
-1.1216	<s> phone seven
-3.1544	<s> phone simone
-1.1216	<s> phone six
-3.1544	<s> phone steve
-3.1544	<s> phone susan
-3.1544	<s> phone ted
-1.1253	<s> phone three
-3.1544	<s> phone tony
-1.1318	<s> phone two
-3.1544	<s> phone wendy
-1.1284	<s> phone zero
-0.7218	<s> please arrange
-1.0656	<s> please call
-0.7172	<s> please cancel
-1.0760	<s> please dial
-1.3123	<s> please find
-0.8726	<s> please get
-1.0664	<s> please phone
-0.7654	<s> please send
-0.1783	<s> send a
-0.4859	<s> send an
-0.0044	<s> what is
-0.7033	<s> when am
-0.0969	<s> when is
-0.0044	a fax to
-0.0044	a letter to
-0.0044	a meeting with
-0.0044	a phone call
-0.0044	a seminar with
-0.0044	a teleconference with
-0.0044	address </s> <s>
-1.5928	address of ann
-1.5974	address of anthony
-1.5883	address of bill
-1.5883	address of charles
-1.5928	address of david
-0.6139	address of doctor
-1.5974	address of elaine
-1.5885	address of james
-1.5839	address of john
-1.5885	address of keith
-1.5931	address of michael
-1.5931	address of mike
-1.5839	address of norman
-1.5839	address of phil
-0.6252	address of professor
-1.5839	address of richard
-1.5885	address of simone
-1.5885	address of steve
-1.5839	address of susan
-1.5839	address of ted
-1.5885	address of tony
-1.5839	address of wendy
-0.0044	am i free
-0.0044	an email to
-0.0044	an interview with
-1.3861	and ann carlton
-1.3499	and ann davies
-1.2805	and ann glover
-1.3925	and ann johnson
-1.3112	and ann jones
-1.3442	and ann miller
-1.3274	and ann milne
-0.7493	and ann on
-1.3068	and ann pinker
-1.3398	and ann smith
-0.8175	and ann today
-0.8040	and ann tomorrow
-1.3633	and ann wordsworth
-1.2912	and ann young
-1.3421	and anthony carlton
-1.3007	and anthony davies
-1.3367	and anthony glover
-1.3531	and anthony johnson
-1.3261	and anthony jones
-1.3007	and anthony miller
-1.3056	and anthony milne
-0.7579	and anthony on
-1.3716	and anthony pinker
-1.3165	and anthony smith
-0.8192	and anthony today
-0.8094	and anthony tomorrow
-1.3775	and anthony wordsworth
-1.3013	and anthony young
-1.3039	and bill carlton
-1.3691	and bill davies
-1.3246	and bill glover
-1.2561	and bill johnson
-1.3933	and bill jones
-1.2561	and bill miller
-1.3353	and bill milne
-0.7822	and bill on
-1.3309	and bill pinker
-1.2087	and bill smith
-0.8241	and bill today
-0.8431	and bill tomorrow
-1.3707	and bill wordsworth
-1.3046	and bill young
-1.2955	and charles carlton
-1.3311	and charles davies
-1.3258	and charles glover
-1.3104	and charles johnson
-1.3364	and charles jones
-1.3206	and charles miller
-1.3364	and charles milne
-0.7996	and charles on
-1.3893	and charles pinker
-1.2538	and charles smith
-0.7996	and charles today
-0.7981	and charles tomorrow
-1.3010	and charles wordsworth
-1.3955	and charles young
-0.0044	and copy to
-1.3289	and david carlton
-1.2642	and david davies
-1.3681	and david glover
-1.2783	and david johnson
-1.2642	and david jones
-1.3235	and david miller
-1.3800	and david milne
-0.7706	and david on
-1.3192	and david pinker
-1.3579	and david smith
-0.8114	and david today
-0.8474	and david tomorrow
-1.2935	and david wordsworth
-1.3245	and david young
-1.4013	and doctor ann
-1.3772	and doctor anthony
-1.3119	and doctor bill
-1.2211	and doctor charles
-1.2378	and doctor david
-1.3772	and doctor elaine
-1.4540	and doctor james
-1.3969	and doctor john
-1.3390	and doctor keith
-1.3499	and doctor michael
-1.2420	and doctor mike
-1.3728	and doctor norman
-1.3612	and doctor phil
-0.9410	and doctor richard
-1.3847	and doctor simone
-1.3178	and doctor steve
-1.3178	and doctor susan
-1.2783	and doctor ted
-1.3075	and doctor tony
-1.3612	and doctor wendy
-1.2671	and elaine carlton
-1.3380	and elaine davies
-1.3380	and elaine glover
-1.3605	and elaine johnson
-1.2862	and elaine jones
-1.4160	and elaine miller
-1.3905	and elaine milne
-0.7541	and elaine on
-1.3504	and elaine pinker
-1.2142	and elaine smith
-0.8146	and elaine today
-0.8528	and elaine tomorrow
-1.3018	and elaine wordsworth
-1.2917	and elaine young
-1.3396	and james carlton
-1.2775	and james davies
-1.3023	and james glover
-1.2922	and james johnson
-1.3341	and james jones
-1.3341	and james miller
-1.3341	and james milne
-0.7912	and james on
-1.2361	and james pinker
-1.3297	and james smith
-0.8243	and james today
-0.8009	and james tomorrow
-1.4078	and james wordsworth
-1.3523	and james young
-1.3442	and john carlton
-1.2565	and john davies
-1.3861	and john glover
-1.3385	and john johnson
-1.3442	and john jones
-1.3007	and john miller
-1.3219	and john milne
-0.8175	and john on
-1.2761	and john pinker
-1.1953	and john smith
-0.8057	and john today
-0.8262	and john tomorrow
-1.4011	and john wordsworth
-1.2861	and john young
-1.3405	and keith carlton
-1.2514	and keith davies
-1.3405	and keith glover
-1.3631	and keith johnson
-1.2936	and keith jones
-1.3036	and keith miller
-1.3350	and keith milne
-0.8072	and keith on
-1.3199	and keith pinker
-1.3361	and keith smith
-0.8056	and keith today
-0.8393	and keith tomorrow
-1.2338	and keith wordsworth
-1.3043	and keith young
-1.3236	and michael carlton
-1.3906	and michael davies
-1.2393	and michael glover
-1.3906	and michael johnson
-1.3787	and michael jones
-1.3503	and michael miller
-1.3614	and michael milne
-0.7480	and michael on
-1.2941	and michael pinker
-1.2845	and michael smith
-0.8491	and michael today
-0.7995	and michael tomorrow
-1.3404	and michael wordsworth
-1.2751	and michael young
-1.2584	and mike carlton
-1.3209	and mike davies
-1.3643	and mike glover
-1.3759	and mike johnson
-1.3475	and mike jones
-1.4063	and mike miller
-1.3759	and mike milne
-0.7551	and mike on
-1.3600	and mike pinker
-1.3432	and mike smith
-0.8343	and mike today
-0.8176	and mike tomorrow
-1.1877	and mike wordsworth
-1.2677	and mike young
-1.3223	and norman carlton
-1.3118	and norman davies
-1.3848	and norman glover
-1.3728	and norman johnson
-1.3440	and norman jones
-1.4232	and norman miller
-1.2449	and norman milne
-0.7460	and norman on
-1.3625	and norman pinker
-1.3567	and norman smith
-0.7956	and norman today
-0.7723	and norman tomorrow
-1.4609	and norman wordsworth
-1.3341	and norman young
-1.2883	and phil carlton
-1.3815	and phil davies
-1.3815	and phil glover
-1.3877	and phil johnson
-1.2643	and phil jones
-1.3351	and phil miller
-1.2737	and phil milne
-0.7751	and phil on
-1.3592	and phil pinker
-1.2939	and phil smith
-0.8068	and phil today
-0.8035	and phil tomorrow
-1.3253	and phil wordsworth
-1.3533	and phil young
-1.3241	and professor ann
-1.2070	and professor anthony
-1.3563	and professor bill
-1.3139	and professor charles
-1.3676	and professor david
-1.4033	and professor elaine
-1.2942	and professor james
-1.3519	and professor john
-1.2106	and professor keith
-1.5451	and professor michael
-1.2354	and professor mike
-1.3302	and professor norman
-1.3095	and professor phil
-0.9745	and professor richard
-1.4245	and professor simone
-1.3302	and professor steve
-1.4245	and professor susan
-1.3632	and professor ted
-1.2618	and professor tony
-1.3302	and professor wendy
-1.2933	and richard carlton
-1.2707	and richard davies
-1.3633	and richard glover
-1.2882	and richard johnson
-1.3484	and richard jones
-1.2707	and richard miller
-1.3397	and richard milne
-0.7561	and richard on
-1.2864	and richard pinker
-1.3559	and richard smith
-0.8450	and richard today
-0.8640	and richard tomorrow
-1.2942	and richard wordsworth
-1.2890	and richard young
-1.3218	and simone carlton
-1.3165	and simone davies
-1.3491	and simone glover
-1.3905	and simone johnson
-1.2961	and simone jones
-1.3491	and simone miller
-1.2765	and simone milne
-0.7779	and simone on
-1.3447	and simone pinker
-1.2444	and simone smith
-0.8403	and simone today
-0.8031	and simone tomorrow
-1.2674	and simone wordsworth
-1.3739	and simone young
-1.2701	and steve carlton
-1.3599	and steve davies
-1.2469	and steve glover
-1.3903	and steve johnson
-1.2947	and steve jones
-1.2560	and steve miller
-1.3599	and steve milne
-0.7967	and steve on
-1.3163	and steve pinker
-1.3556	and steve smith
-0.8166	and steve today
-0.8048	and steve tomorrow
-1.3797	and steve wordsworth
-1.3110	and steve young
-1.4133	and susan carlton
-1.3834	and susan davies
-1.3189	and susan glover
-1.3090	and susan johnson
-1.2541	and susan jones
-1.3719	and susan miller
-1.3341	and susan milne
-0.7516	and susan on
-1.4152	and susan pinker
-1.2628	and susan smith
-0.7741	and susan today
-0.8325	and susan tomorrow
-1.3676	and susan wordsworth
-1.3298	and susan young
-1.3646	and ted carlton
-1.3211	and ted davies
-1.3704	and ted glover
-1.3211	and ted johnson
-1.4193	and ted jones
-1.3369	and ted miller
-1.2864	and ted milne
-0.7625	and ted on
-1.2726	and ted pinker
-1.3116	and ted smith
-0.8049	and ted today
-0.8162	and ted tomorrow
-1.3116	and ted wordsworth
-1.3326	and ted young
-1.3231	and tony carlton
-1.4360	and tony davies
-1.3077	and tony glover
-1.2690	and tony johnson
-1.3788	and tony jones
-1.2784	and tony miller
-1.3127	and tony milne
-0.7985	and tony on
-1.2884	and tony pinker
-1.4385	and tony smith
-0.7478	and tony today
-0.8381	and tony tomorrow
-1.3187	and tony wordsworth
-1.3240	and tony young
-1.2371	and wendy carlton
-1.4067	and wendy davies
-1.3463	and wendy glover
-1.2415	and wendy johnson
-1.3243	and wendy jones
-1.2643	and wendy miller
-1.3085	and wendy milne
-0.8003	and wendy on
-1.3771	and wendy pinker
-1.3771	and wendy smith
-0.8084	and wendy today
-0.8101	and wendy tomorrow
-1.3253	and wendy wordsworth
-1.3363	and wendy young
-0.0044	ann </s> <s>
-1.6678	ann and ann
-1.5129	ann and anthony
-1.5709	ann and bill
-1.5709	ann and charles
-0.4346	ann and copy
-1.5239	ann and david
-1.7927	ann and doctor
-1.4873	ann and elaine
-1.5424	ann and james
-1.5921	ann and john
-1.5424	ann and keith
-1.5195	ann and michael
-1.4978	ann and mike
-1.5308	ann and norman
-1.5921	ann and phil
-1.8801	ann and professor
-1.2977	ann and richard
-1.5195	ann and simone
-1.5308	ann and steve
-1.4478	ann and susan
-1.5791	ann and ted
-1.5424	ann and tony
-1.5424	ann and wendy
-0.5577	ann carlton </s>
-0.4703	ann carlton and
-0.7713	ann carlton on
-0.9932	ann carlton today
-0.9847	ann carlton tomorrow
-0.6064	ann carlton's address
-0.6064	ann carlton's email
-0.6064	ann carlton's fax
-0.6064	ann carlton's telephone
-0.5662	ann davies </s>
-0.4717	ann davies and
-0.7289	ann davies on
-1.0433	ann davies today
-0.9842	ann davies tomorrow
-0.6064	ann davies's address
-0.6064	ann davies's email
-0.6064	ann davies's fax
-0.6064	ann davies's telephone
-0.5616	ann glover </s>
-0.5129	ann glover and
-0.7142	ann glover on
-0.9285	ann glover today
-1.0107	ann glover tomorrow
-0.5332	ann johnson </s>
-0.4745	ann johnson and
-0.7755	ann johnson on
-1.0133	ann johnson today
-1.0133	ann johnson tomorrow
-0.5410	ann jones </s>
-0.5174	ann jones and
-0.7278	ann jones on
-1.0061	ann jones today
-0.9481	ann jones tomorrow
-0.6064	ann jones's address
-0.6064	ann jones's email
-0.6064	ann jones's fax
-0.6064	ann jones's telephone
-0.5387	ann miller </s>
-0.4591	ann miller and
-0.8034	ann miller on
-1.0217	ann miller today
-0.9959	ann miller tomorrow
-0.6064	ann miller's address
-0.6064	ann miller's email
-0.6064	ann miller's fax
-0.6064	ann miller's telephone
-0.5634	ann milne </s>
-0.4399	ann milne and
-0.8049	ann milne on
-0.9334	ann milne today
-1.0954	ann milne tomorrow
-0.6741	ann on friday
-0.6847	ann on monday
-0.6956	ann on thursday
-0.7181	ann on tuesday
-0.7481	ann on wednesday
-0.5472	ann pinker </s>
-0.5020	ann pinker and
-0.7691	ann pinker on
-0.9667	ann pinker today
-0.9452	ann pinker tomorrow
-0.6064	ann pinker's address
-0.6064	ann pinker's email
-0.6064	ann pinker's fax
-0.6064	ann pinker's telephone
-0.5602	ann smith </s>
-0.4481	ann smith and
-0.7514	ann smith on
-1.0524	ann smith today
-1.0343	ann smith tomorrow
-0.6064	ann smith's address
-0.6064	ann smith's email
-0.6064	ann smith's fax
-0.6064	ann smith's telephone
-0.0044	ann today </s>
-0.0044	ann tomorrow </s>
-0.5587	ann wordsworth </s>
-0.4406	ann wordsworth and
-0.7876	ann wordsworth on
-1.0543	ann wordsworth today
-1.0010	ann wordsworth tomorrow
-0.6064	ann wordsworth's address
-0.6064	ann wordsworth's email
-0.6064	ann wordsworth's fax
-0.6064	ann wordsworth's telephone
-0.5769	ann young </s>
-0.5246	ann young and
-0.7139	ann young on
-0.9764	ann young today
-0.8945	ann young tomorrow
-0.0044	ann's address </s>
-0.0044	ann's email address
-0.0044	ann's fax number
-0.0044	ann's telephone number
-0.0044	anthony </s> <s>
-1.4892	anthony and ann
-1.5109	anthony and anthony
-1.4892	anthony and bill
-1.5579	anthony and charles
-0.4364	anthony and copy
-1.4787	anthony and david
-1.8467	anthony and doctor
-1.4955	anthony and elaine
-1.6997	anthony and james
-1.5925	anthony and john
-1.5791	anthony and keith
-1.5925	anthony and michael
-1.4848	anthony and mike
-1.5065	anthony and norman
-1.5535	anthony and phil
-1.7552	anthony and professor
-1.3123	anthony and richard
-1.5294	anthony and simone
-1.5661	anthony and steve
-1.6352	anthony and susan
-1.4848	anthony and ted
-1.5178	anthony and tony
-1.5661	anthony and wendy
-0.5546	anthony carlton </s>
-0.4885	anthony carlton and
-0.7662	anthony carlton on
-0.9932	anthony carlton today
-0.9448	anthony carlton tomorrow
-0.6064	anthony carlton's address
-0.6064	anthony carlton's email
-0.6064	anthony carlton's fax
-0.6064	anthony carlton's telephone
-0.5755	anthony davies </s>
-0.4923	anthony davies and
-0.7784	anthony davies on
-0.8953	anthony davies today
-0.9644	anthony davies tomorrow
-0.6064	anthony davies's address
-0.6064	anthony davies's email
-0.6064	anthony davies's fax
-0.6064	anthony davies's telephone
-0.5843	anthony glover </s>
-0.4841	anthony glover and
-0.7474	anthony glover on
-1.0026	anthony glover today
-0.9092	anthony glover tomorrow
-0.5651	anthony johnson </s>
-0.4886	anthony johnson and
-0.7764	anthony johnson on
-0.9246	anthony johnson today
-0.9712	anthony johnson tomorrow
-0.5997	anthony jones </s>
-0.4681	anthony jones and
-0.7741	anthony jones on
-0.9212	anthony jones today
-0.9578	anthony jones tomorrow
-0.6064	anthony jones's address
-0.6064	anthony jones's email
-0.6064	anthony jones's fax
-0.6064	anthony jones's telephone
-0.5810	anthony miller </s>
-0.5217	anthony miller and
-0.7024	anthony miller on
-0.9466	anthony miller today
-0.9385	anthony miller tomorrow
-0.6064	anthony miller's address
-0.6064	anthony miller's email
-0.6064	anthony miller's fax
-0.6064	anthony miller's telephone
-0.5640	anthony milne </s>
-0.4798	anthony milne and
-0.7476	anthony milne on
-1.0093	anthony milne today
-0.9619	anthony milne tomorrow
-0.7541	anthony on friday
-0.6658	anthony on monday
-0.6915	anthony on thursday
-0.7420	anthony on tuesday
-0.6708	anthony on wednesday
-0.5316	anthony pinker </s>
-0.4849	anthony pinker and
-0.7886	anthony pinker on
-0.9917	anthony pinker today
-0.9834	anthony pinker tomorrow
-0.6064	anthony pinker's address
-0.6064	anthony pinker's email
-0.6064	anthony pinker's fax
-0.6064	anthony pinker's telephone
-0.5645	anthony smith </s>
-0.4557	anthony smith and
-0.7833	anthony smith on
-1.0416	anthony smith today
-0.9520	anthony smith tomorrow
-0.6064	anthony smith's address
-0.6064	anthony smith's email
-0.6064	anthony smith's fax
-0.6064	anthony smith's telephone
-0.0044	anthony today </s>
-0.0044	anthony tomorrow </s>
-0.5782	anthony wordsworth </s>
-0.4391	anthony wordsworth and
-0.8093	anthony wordsworth on
-0.9342	anthony wordsworth today
-1.0433	anthony wordsworth tomorrow
-0.6064	anthony wordsworth's address
-0.6064	anthony wordsworth's email
-0.6064	anthony wordsworth's fax
-0.6064	anthony wordsworth's telephone
-0.6201	anthony young </s>
-0.4690	anthony young and
-0.7775	anthony young on
-0.8782	anthony young today
-0.9536	anthony young tomorrow
-0.0044	anthony's address </s>
-0.0044	anthony's email address
-0.0044	anthony's fax number
-0.0044	anthony's telephone number
-0.7033	appointment on friday
-0.7033	appointment on monday
-0.7033	appointment on thursday
-0.7033	appointment on tuesday
-0.7033	appointment on wednesday
-0.0044	appointment today </s>
-0.0044	appointment tomorrow </s>
-0.6035	arrange a meeting
-0.6025	arrange a phone
-0.6026	arrange a seminar
-0.6173	arrange a teleconference
-0.0044	arrange an interview
-0.0044	bill </s> <s>
-1.5113	bill and ann
-1.5225	bill and anthony
-1.4688	bill and bill
-1.4895	bill and charles
-0.4699	bill and copy
-1.4211	bill and david
-1.7801	bill and doctor
-1.5539	bill and elaine
-1.5928	bill and james
-1.6830	bill and john
-1.5665	bill and keith
-1.6508	bill and michael
-1.5416	bill and mike
-1.5182	bill and norman
-1.4747	bill and phil
-1.7362	bill and professor
-1.2171	bill and richard
-1.4959	bill and simone
-1.4959	bill and steve
-1.5665	bill and susan
-1.4747	bill and ted
-1.5665	bill and tony
-1.5665	bill and wendy
-0.5692	bill carlton </s>
-0.4668	bill carlton and
-0.7850	bill carlton on
-0.9763	bill carlton today
-0.9611	bill carlton tomorrow
-0.6064	bill carlton's address
-0.6064	bill carlton's email
-0.6064	bill carlton's fax
-0.6064	bill carlton's telephone
-0.5080	bill davies </s>
-0.4999	bill davies and
-0.7551	bill davies on
-1.0966	bill davies today
-0.9690	bill davies tomorrow
-0.6064	bill davies's address
-0.6064	bill davies's email
-0.6064	bill davies's fax
-0.6064	bill davies's telephone
-0.5534	bill glover </s>
-0.5198	bill glover and
-0.7658	bill glover on
-0.8450	bill glover today
-1.0273	bill glover tomorrow
-0.5463	bill johnson </s>
-0.5463	bill johnson and
-0.6973	bill johnson on
-1.0295	bill johnson today
-0.8954	bill johnson tomorrow
-0.5819	bill jones </s>
-0.4448	bill jones and
-0.8104	bill jones on
-0.9466	bill jones today
-0.9949	bill jones tomorrow
-0.6064	bill jones's address
-0.6064	bill jones's email
-0.6064	bill jones's fax
-0.6064	bill jones's telephone
-0.5840	bill miller </s>
-0.4756	bill miller and
-0.7817	bill miller on
-0.9477	bill miller today
-0.9329	bill miller tomorrow
-0.6064	bill miller's address
-0.6064	bill miller's email
-0.6064	bill miller's fax
-0.6064	bill miller's telephone
-0.5153	bill milne </s>
-0.5457	bill milne and
-0.7880	bill milne on
-0.8727	bill milne today
-0.9866	bill milne tomorrow
-0.6302	bill on friday
-0.6605	bill on monday
-0.7345	bill on thursday
-0.7942	bill on tuesday
-0.7162	bill on wednesday
-0.5733	bill pinker </s>
-0.4920	bill pinker and
-0.7245	bill pinker on
-0.9664	bill pinker today
-0.9825	bill pinker tomorrow
-0.6064	bill pinker's address
-0.6064	bill pinker's email
-0.6064	bill pinker's fax
-0.6064	bill pinker's telephone
-0.5866	bill smith </s>
-0.5048	bill smith and
-0.7415	bill smith on
-0.9619	bill smith today
-0.8939	bill smith tomorrow
-0.6064	bill smith's address
-0.6064	bill smith's email
-0.6064	bill smith's fax
-0.6064	bill smith's telephone
-0.0044	bill today </s>
-0.0044	bill tomorrow </s>
-0.5567	bill wordsworth </s>
-0.5194	bill wordsworth and
-0.7248	bill wordsworth on
-0.9678	bill wordsworth today
-0.9434	bill wordsworth tomorrow
-0.6064	bill wordsworth's address
-0.6064	bill wordsworth's email
-0.6064	bill wordsworth's fax
-0.6064	bill wordsworth's telephone
-0.5209	bill young </s>
-0.4968	bill young and
-0.8164	bill young on
-0.9414	bill young today
-0.9871	bill young tomorrow
-0.0044	bill's address </s>
-0.0044	bill's email address
-0.0044	bill's fax number
-0.0044	bill's telephone number
-1.0835	call ann </s>
-1.0835	call ann carlton
-1.0835	call ann davies
-1.0835	call ann glover
-1.0835	call ann johnson
-1.0835	call ann jones
-1.0835	call ann miller
-1.0835	call ann milne
-1.0835	call ann pinker
-1.0835	call ann smith
-1.0835	call ann wordsworth
-1.0835	call ann young
-1.0835	call anthony </s>
-1.0835	call anthony carlton
-1.0835	call anthony davies
-1.0835	call anthony glover
-1.0835	call anthony johnson
-1.0835	call anthony jones
-1.0835	call anthony miller
-1.0835	call anthony milne
-1.0835	call anthony pinker
-1.0835	call anthony smith
-1.0835	call anthony wordsworth
-1.0835	call anthony young
-1.0835	call bill </s>
-1.0835	call bill carlton
-1.0835	call bill davies
-1.0835	call bill glover
-1.0835	call bill johnson
-1.0835	call bill jones
-1.0835	call bill miller
-1.0835	call bill milne
-1.0835	call bill pinker
-1.0835	call bill smith
-1.0835	call bill wordsworth
-1.0835	call bill young
-1.0835	call charles </s>
-1.0835	call charles carlton
-1.0835	call charles davies
-1.0835	call charles glover
-1.0835	call charles johnson
-1.0835	call charles jones
-1.0835	call charles miller
-1.0835	call charles milne
-1.0835	call charles pinker
-1.0835	call charles smith
-1.0835	call charles wordsworth
-1.0835	call charles young
-1.0835	call david </s>
-1.0835	call david carlton
-1.0835	call david davies
-1.0835	call david glover
-1.0835	call david johnson
-1.0835	call david jones
-1.0835	call david miller
-1.0835	call david milne
-1.0835	call david pinker
-1.0835	call david smith
-1.0835	call david wordsworth
-1.0835	call david young
-1.3388	call doctor ann
-1.3688	call doctor anthony
-1.3108	call doctor bill
-1.2845	call doctor charles
-1.2596	call doctor david
-1.3108	call doctor elaine
-1.3388	call doctor james
-1.3345	call doctor john
-1.2801	call doctor keith
-1.3345	call doctor michael
-1.3064	call doctor mike
-1.3644	call doctor norman
-1.2553	call doctor phil
-1.1883	call doctor richard
-1.2801	call doctor simone
-1.3345	call doctor steve
-1.3064	call doctor susan
-1.2801	call doctor ted
-1.3064	call doctor tony
-1.3064	call doctor wendy
-1.1001	call double double
-1.0321	call double eight
-1.0821	call double five
-1.1386	call double four
-1.0353	call double nine
-1.1113	call double oh
-1.0648	call double one
-1.1302	call double seven
-1.1262	call double six
-1.0604	call double three
-1.0777	call double two
-1.0405	call double zero
-1.0623	call eight double
-1.0694	call eight eight
-1.0483	call eight five
-1.0414	call eight four
-1.0804	call eight nine
-1.1152	call eight oh
-1.0658	call eight one
-1.1665	call eight seven
-1.0836	call eight six
-1.0798	call eight three
-1.0724	call eight two
-1.1108	call eight zero
-1.0835	call elaine </s>
-1.0835	call elaine carlton
-1.0835	call elaine davies
-1.0835	call elaine glover
-1.0835	call elaine johnson
-1.0835	call elaine jones
-1.0835	call elaine miller
-1.0835	call elaine milne
-1.0835	call elaine pinker
-1.0835	call elaine smith
-1.0835	call elaine wordsworth
-1.0835	call elaine young
-1.1038	call five double
-1.1366	call five eight
-1.0624	call five five
-1.0588	call five four
-1.0960	call five nine
-1.1496	call five oh
-1.0807	call five one
-1.0405	call five seven
-1.0405	call five six
-1.0994	call five three
-1.0474	call five two
-1.0801	call five zero
-1.1007	call four double
-1.1499	call four eight
-1.1328	call four five
-1.0393	call four four
-1.0930	call four nine
-1.0260	call four oh
-1.1205	call four one
-1.0591	call four seven
-1.0217	call four six
-1.0451	call four three
-1.1327	call four two
-1.0848	call four zero
-1.0835	call james </s>
-1.0835	call james carlton
-1.0835	call james davies
-1.0835	call james glover
-1.0835	call james johnson
-1.0835	call james jones
-1.0835	call james miller
-1.0835	call james milne
-1.0835	call james pinker
-1.0835	call james smith
-1.0835	call james wordsworth
-1.0835	call james young
-1.0835	call john </s>
-1.0835	call john carlton
-1.0835	call john davies
-1.0835	call john glover
-1.0835	call john johnson
-1.0835	call john jones
-1.0835	call john miller
-1.0835	call john milne
-1.0835	call john pinker
-1.0835	call john smith
-1.0835	call john wordsworth
-1.0835	call john young
-1.0835	call keith </s>
-1.0835	call keith carlton
-1.0835	call keith davies
-1.0835	call keith glover
-1.0835	call keith johnson
-1.0835	call keith jones
-1.0835	call keith miller
-1.0835	call keith milne
-1.0835	call keith pinker
-1.0835	call keith smith
-1.0835	call keith wordsworth
-1.0835	call keith young
-1.0835	call michael </s>
-1.0835	call michael carlton
-1.0835	call michael davies
-1.0835	call michael glover
-1.0835	call michael johnson
-1.0835	call michael jones
-1.0835	call michael miller
-1.0835	call michael milne
-1.0835	call michael pinker
-1.0835	call michael smith
-1.0835	call michael wordsworth
-1.0835	call michael young
-1.0651	call mike </s>
-1.3661	call mike carlton
-1.0651	call mike davies
-1.0651	call mike glover
-1.0651	call mike johnson
-1.0651	call mike jones
-1.0651	call mike miller
-1.0651	call mike milne
-1.0651	call mike pinker
-1.0651	call mike smith
-1.0651	call mike wordsworth
-1.0651	call mike young
-1.1053	call nine double
-1.0691	call nine eight
-1.1016	call nine five
-1.1793	call nine four
-1.0455	call nine nine
-1.0554	call nine oh
-1.0521	call nine one
-1.0477	call nine seven
-1.0898	call nine six
-1.0861	call nine three
-1.0789	call nine two
-1.0861	call nine zero
-1.0835	call norman </s>
-1.0835	call norman carlton
-1.0835	call norman davies
-1.0835	call norman glover
-1.0835	call norman johnson
-1.0835	call norman jones
-1.0835	call norman miller
-1.0835	call norman milne
-1.0835	call norman pinker
-1.0835	call norman smith
-1.0835	call norman wordsworth
-1.0835	call norman young
-1.4316	call oh double
-1.0734	call oh eight
-0.9896	call oh five
-1.0295	call oh four
-1.0607	call oh nine
-1.3726	call oh oh
-1.0431	call oh one
-1.0152	call oh seven
-1.0056	call oh six
-0.9432	call oh three
-0.9868	call oh two
-1.3467	call oh zero
-1.0707	call one double
-1.0069	call one eight
-1.0359	call one five
-1.0930	call one four
-1.1246	call one nine
-1.0743	call one oh
-1.0854	call one one
-1.0773	call one seven
-1.1161	call one six
-1.1081	call one three
-1.1412	call one two
-1.0663	call one zero
-1.0835	call phil </s>
-1.0835	call phil carlton
-1.0835	call phil davies
-1.0835	call phil glover
-1.0835	call phil johnson
-1.0835	call phil jones
-1.0835	call phil miller
-1.0835	call phil milne
-1.0835	call phil pinker
-1.0835	call phil smith
-1.0835	call phil wordsworth
-1.0835	call phil young
-1.2179	call professor ann
-1.3728	call professor anthony
-1.3428	call professor bill
-1.2885	call professor charles
-1.2885	call professor david
-1.3728	call professor elaine
-1.4397	call professor james
-1.2593	call professor john
-1.3104	call professor keith
-1.3684	call professor michael
-1.2841	call professor mike
-1.2841	call professor norman
-1.3104	call professor phil
-1.2135	call professor richard
-1.2841	call professor simone
-1.3104	call professor steve
-1.2593	call professor susan
-1.3684	call professor ted
-1.2135	call professor tony
-1.3385	call professor wendy
-1.0835	call richard </s>
-1.0835	call richard carlton
-1.0835	call richard davies
-1.0835	call richard glover
-1.0835	call richard johnson
-1.0835	call richard jones
-1.0835	call richard miller
-1.0835	call richard milne
-1.0835	call richard pinker
-1.0835	call richard smith
-1.0835	call richard wordsworth
-1.0835	call richard young
-1.0889	call seven double
-1.0028	call seven eight
-1.0776	call seven five
-1.1546	call seven four
-1.1372	call seven nine
-1.0814	call seven oh
-1.0559	call seven one
-1.1328	call seven seven
-1.0770	call seven six
-1.0808	call seven three
-1.0659	call seven two
-1.0480	call seven zero
-1.0651	call simone </s>
-1.0651	call simone carlton
-1.0651	call simone davies
-1.0651	call simone glover
-1.0651	call simone johnson
-1.0651	call simone jones
-1.0651	call simone miller
-1.0651	call simone milne
-1.0651	call simone pinker
-1.0651	call simone smith
-1.3661	call simone wordsworth
-1.0651	call simone young
-1.0571	call six double
-1.0749	call six eight
-1.0433	call six five
-1.0606	call six four
-1.1131	call six nine
-1.0677	call six oh
-1.0106	call six one
-1.1087	call six seven
-1.1127	call six six
-1.1461	call six three
-1.0854	call six two
-1.1208	call six zero
-1.0835	call steve </s>
-1.0835	call steve carlton
-1.0835	call steve davies
-1.0835	call steve glover
-1.0835	call steve johnson
-1.0835	call steve jones
-1.0835	call steve miller
-1.0835	call steve milne
-1.0835	call steve pinker
-1.0835	call steve smith
-1.0835	call steve wordsworth
-1.0835	call steve young
-1.0835	call susan </s>
-1.0835	call susan carlton
-1.0835	call susan davies
-1.0835	call susan glover
-1.0835	call susan johnson
-1.0835	call susan jones
-1.0835	call susan miller
-1.0835	call susan milne
-1.0835	call susan pinker
-1.0835	call susan smith
-1.0835	call susan wordsworth
-1.0835	call susan young
-1.0835	call ted </s>
-1.0835	call ted carlton
-1.0835	call ted davies
-1.0835	call ted glover
-1.0835	call ted johnson
-1.0835	call ted jones
-1.0835	call ted miller
-1.0835	call ted milne
-1.0835	call ted pinker
-1.0835	call ted smith
-1.0835	call ted wordsworth
-1.0835	call ted young
-1.1232	call three double
-1.1835	call three eight
-1.1192	call three five
-1.0632	call three four
-1.0461	call three nine
-1.0960	call three oh
-1.0775	call three one
-1.0252	call three seven
-1.1311	call three six
-1.0284	call three three
-1.0589	call three two
-1.0554	call three zero
-1.0835	call tony </s>
-1.0835	call tony carlton
-1.0835	call tony davies
-1.0835	call tony glover
-1.0835	call tony johnson
-1.0835	call tony jones
-1.0835	call tony miller
-1.0835	call tony milne
-1.0835	call tony pinker
-1.0835	call tony smith
-1.0835	call tony wordsworth
-1.0835	call tony young
-1.1294	call two double
-1.0488	call two eight
-1.2016	call two five
-1.1078	call two four
-1.0415	call two nine
-1.1120	call two oh
-1.0525	call two one
-1.0910	call two seven
-1.0594	call two six
-1.0556	call two three
-1.0407	call two two
-1.0671	call two zero
-1.0835	call wendy </s>
-1.0835	call wendy carlton
-1.0835	call wendy davies
-1.0835	call wendy glover
-1.0835	call wendy johnson
-1.0835	call wendy jones
-1.0835	call wendy miller
-1.0835	call wendy milne
-1.0835	call wendy pinker
-1.0835	call wendy smith
-1.0835	call wendy wordsworth
-1.0835	call wendy young
-1.3635	call with ann
-1.3660	call with anthony
-1.3684	call with bill
-1.3807	call with charles
-1.3790	call with david
-1.2633	call with doctor
-1.3807	call with elaine
-1.3283	call with james
-1.3632	call with john
-1.3805	call with keith
-1.3584	call with michael
-1.3673	call with mike
-1.3738	call with norman
-1.3536	call with phil
-1.2583	call with professor
-1.1373	call with richard
-1.3576	call with simone
-1.3656	call with steve
-1.3747	call with susan
-1.3898	call with ted
-1.3797	call with tony
-1.3648	call with wendy
-1.1252	call zero double
-1.0961	call zero eight
-1.0726	call zero five
-1.0503	call zero four
-1.0961	call zero nine
-1.0540	call zero oh
-1.0576	call zero one
-1.0496	call zero seven
-1.0759	call zero six
-1.1252	call zero three
-1.0683	call zero two
-1.1208	call zero zero
-0.7062	cancel the interview
-0.6947	cancel the meeting
-0.7082	cancel the phone
-0.6998	cancel the seminar
-0.7080	cancel the teleconference
-0.0044	carlton </s> <s>
-1.6179	carlton and ann
-1.5981	carlton and anthony
-1.5981	carlton and bill
-1.5839	carlton and charles
-0.3418	carlton and copy
-1.6716	carlton and david
-1.9961	carlton and doctor
-1.6730	carlton and elaine
-1.5795	carlton and james
-1.6035	carlton and john
-1.5480	carlton and keith
-1.5795	carlton and michael
-1.6035	carlton and mike
-1.7556	carlton and norman
-1.6186	carlton and phil
-1.8853	carlton and professor
-1.2927	carlton and richard
-1.6237	carlton and simone
-1.6559	carlton and steve
-1.6035	carlton and susan
-1.6186	carlton and ted
-1.6449	carlton and tony
-1.4988	carlton and wendy
-0.7050	carlton on friday
-0.6791	carlton on monday
-0.7038	carlton on thursday
-0.7120	carlton on tuesday
-0.7179	carlton on wednesday
-0.0044	carlton today </s>
-0.0044	carlton tomorrow </s>
-0.0044	carlton's address </s>
-0.0044	carlton's email address
-0.0044	carlton's fax number
-0.0044	carlton's telephone number
-0.0044	charles </s> <s>
-1.5311	charles and ann
-1.5546	charles and anthony
-1.4981	charles and bill
-1.4981	charles and charles
-0.4510	charles and copy
-1.6057	charles and david
-1.8321	charles and doctor
-1.6294	charles and elaine
-1.5267	charles and james
-1.4253	charles and john
-1.5155	charles and keith
-1.6441	charles and michael
-1.5625	charles and mike
-1.5751	charles and norman
-1.4833	charles and phil
-1.8055	charles and professor
-1.2805	charles and richard
-1.3823	charles and simone
-1.5045	charles and steve
-1.5751	charles and susan
-1.5880	charles and ted
-1.4937	charles and tony
-1.6152	charles and wendy
-0.5692	charles carlton </s>
-0.4915	charles carlton and
-0.7333	charles carlton on
-0.9252	charles carlton today
-1.0256	charles carlton tomorrow
-0.6064	charles carlton's address
-0.6064	charles carlton's email
-0.6064	charles carlton's fax
-0.6064	charles carlton's telephone
-0.5275	charles davies </s>
-0.4815	charles davies and
-0.7521	charles davies on
-1.0354	charles davies today
-1.0268	charles davies tomorrow
-0.6064	charles davies's address
-0.6064	charles davies's email
-0.6064	charles davies's fax
-0.6064	charles davies's telephone
-0.5775	charles glover </s>
-0.4833	charles glover and
-0.7305	charles glover on
-0.9687	charles glover today
-0.9857	charles glover tomorrow
-0.5543	charles johnson </s>
-0.4504	charles johnson and
-0.8054	charles johnson on
-0.9537	charles johnson today
-1.0524	charles johnson tomorrow
-0.5636	charles jones </s>
-0.5084	charles jones and
-0.7189	charles jones on
-0.9714	charles jones today
-0.9631	charles jones tomorrow
-0.6064	charles jones's address
-0.6064	charles jones's email
-0.6064	charles jones's fax
-0.6064	charles jones's telephone
-0.5560	charles miller </s>
-0.4823	charles miller and
-0.7204	charles miller on
-1.0769	charles miller today
-0.9645	charles miller tomorrow
-0.6064	charles miller's address
-0.6064	charles miller's email
-0.6064	charles miller's fax
-0.6064	charles miller's telephone
-0.5211	charles milne </s>
-0.4815	charles milne and
-0.8362	charles milne on
-0.9846	charles milne today
-0.9611	charles milne tomorrow
-0.7507	charles on friday
-0.6952	charles on monday
-0.6894	charles on thursday
-0.6894	charles on tuesday
-0.6952	charles on wednesday
-0.5658	charles pinker </s>
-0.4640	charles pinker and
-0.7388	charles pinker on
-1.0044	charles pinker today
-1.0307	charles pinker tomorrow
-0.6064	charles pinker's address
-0.6064	charles pinker's email
-0.6064	charles pinker's fax
-0.6064	charles pinker's telephone
-0.5618	charles smith </s>
-0.4782	charles smith and
-0.8071	charles smith on
-0.9858	charles smith today
-0.9066	charles smith tomorrow
-0.6064	charles smith's address
-0.6064	charles smith's email
-0.6064	charles smith's fax
-0.6064	charles smith's telephone
-0.0044	charles today </s>
-0.0044	charles tomorrow </s>
-0.5526	charles wordsworth </s>
-0.4774	charles wordsworth and
-0.7544	charles wordsworth on
-1.0069	charles wordsworth today
-0.9905	charles wordsworth tomorrow
-0.6064	charles wordsworth's address
-0.6064	charles wordsworth's email
-0.6064	charles wordsworth's fax
-0.6064	charles wordsworth's telephone
-0.5757	charles young </s>
-0.4445	charles young and
-0.7742	charles young on
-1.0027	charles young today
-1.0111	charles young tomorrow
-0.0044	charles's address </s>
-0.0044	charles's email address
-0.0044	charles's fax number
-0.0044	charles's telephone number
-1.3430	copy to ann
-1.3643	copy to anthony
-1.3409	copy to bill
-1.3460	copy to charles
-1.3565	copy to david
-1.5113	copy to doctor
-1.3443	copy to elaine
-1.3448	copy to james
-1.3328	copy to john
-1.3653	copy to keith
-1.3355	copy to michael
-1.3389	copy to mike
-1.3469	copy to norman
-1.3338	copy to phil
-1.5034	copy to professor
-1.1058	copy to richard
-1.3455	copy to simone
-1.3352	copy to steve
-1.3653	copy to susan
-1.3528	copy to ted
-1.3510	copy to tony
-1.3349	copy to wendy
-0.0044	david </s> <s>
-1.6175	david and ann
-1.5506	david and anthony
-1.4714	david and bill
-1.3871	david and charles
-0.4357	david and copy
-1.5631	david and david
-1.9485	david and doctor
-1.5851	david and elaine
-1.5105	david and james
-1.4992	david and john
-1.4882	david and keith
-1.4670	david and michael
-1.6279	david and mike
-1.5340	david and norman
-1.4882	david and phil
-2.0489	david and professor
-1.2094	david and richard
-1.6431	david and simone
-1.5717	david and steve
-1.6431	david and susan
-1.6431	david and ted
-1.5717	david and tony
-1.5340	david and wendy
-0.5773	david carlton </s>
-0.4771	david carlton and
-0.7308	david carlton on
-0.9237	david carlton today
-1.0611	david carlton tomorrow
-0.6064	david carlton's address
-0.6064	david carlton's email
-0.6064	david carlton's fax
-0.6064	david carlton's telephone
-0.5493	david davies </s>
-0.4790	david davies and
-0.7701	david davies on
-0.9953	david davies today
-0.9792	david davies tomorrow
-0.6064	david davies's address
-0.6064	david davies's email
-0.6064	david davies's fax
-0.6064	david davies's telephone
-0.5228	david glover </s>
-0.4942	david glover and
-0.7870	david glover on
-1.0273	david glover today
-0.9497	david glover tomorrow
-0.5703	david johnson </s>
-0.4994	david johnson and
-0.7283	david johnson on
-0.9953	david johnson today
-0.9342	david johnson tomorrow
-0.5619	david jones </s>
-0.5311	david jones and
-0.7609	david jones on
-0.9473	david jones today
-0.8694	david jones tomorrow
-0.6064	david jones's address
-0.6064	david jones's email
-0.6064	david jones's fax
-0.6064	david jones's telephone
-0.5615	david miller </s>
-0.4621	david miller and
-0.7732	david miller on
-0.9917	david miller today
-1.0001	david miller tomorrow
-0.6064	david miller's address
-0.6064	david miller's email
-0.6064	david miller's fax
-0.6064	david miller's telephone
-0.5288	david milne </s>
-0.5318	david milne and
-0.7317	david milne on
-0.9407	david milne today
-0.9998	david milne tomorrow
-0.6879	david on friday
-0.6933	david on monday
-0.7101	david on thursday
-0.7336	david on tuesday
-0.6933	david on wednesday
-0.5744	david pinker </s>
-0.4582	david pinker and
-0.7617	david pinker on
-1.0209	david pinker today
-0.9707	david pinker tomorrow
-0.6064	david pinker's address
-0.6064	david pinker's email
-0.6064	david pinker's fax
-0.6064	david pinker's telephone
-0.5659	david smith </s>
-0.4882	david smith and
-0.7622	david smith on
-0.9578	david smith today
-0.9578	david smith tomorrow
-0.6064	david smith's address
-0.6064	david smith's email
-0.6064	david smith's fax
-0.6064	david smith's telephone
-0.0044	david today </s>
-0.0044	david tomorrow </s>
-0.6015	david wordsworth </s>
-0.4549	david wordsworth and
-0.7134	david wordsworth on
-1.0145	david wordsworth today
-1.0060	david wordsworth tomorrow
-0.6064	david wordsworth's address
-0.6064	david wordsworth's email
-0.6064	david wordsworth's fax
-0.6064	david wordsworth's telephone
-0.5372	david young </s>
-0.5093	david young and
-0.7619	david young on
-0.9603	david young today
-0.9680	david young tomorrow
-0.0044	david's address </s>
-0.0044	david's email address
-0.0044	david's fax number
-0.0044	david's telephone number
-0.0044	davies </s> <s>
-1.6510	davies and ann
-1.6961	davies and anthony
-1.6101	davies and bill
-1.6101	davies and charles
-0.3380	davies and copy
-1.6618	davies and david
-1.8782	davies and doctor
-1.6630	davies and elaine
-1.6206	davies and james
-1.6257	davies and john
-1.6057	davies and keith
-1.5820	davies and michael
-1.6106	davies and mike
-1.5423	davies and norman
-1.6009	davies and phil
-1.9116	davies and professor
-1.3221	davies and richard
-1.5774	davies and simone
-1.6466	davies and steve
-1.6106	davies and susan
-1.5820	davies and ted
-1.6057	davies and tony
-1.5961	davies and wendy
-0.7282	davies on friday
-0.7050	davies on monday
-0.7050	davies on thursday
-0.7098	davies on tuesday
-0.6707	davies on wednesday
-0.0044	davies today </s>
-0.0044	davies tomorrow </s>
-0.0044	davies's address </s>
-0.0044	davies's email address
-0.0044	davies's fax number
-0.0044	davies's telephone number
-1.0835	dial ann </s>
-1.0835	dial ann carlton
-1.0835	dial ann davies
-1.0835	dial ann glover
-1.0835	dial ann johnson
-1.0835	dial ann jones
-1.0835	dial ann miller
-1.0835	dial ann milne
-1.0835	dial ann pinker
-1.0835	dial ann smith
-1.0835	dial ann wordsworth
-1.0835	dial ann young
-1.0651	dial anthony </s>
-1.3661	dial anthony carlton
-1.0651	dial anthony davies
-1.0651	dial anthony glover
-1.0651	dial anthony johnson
-1.0651	dial anthony jones
-1.0651	dial anthony miller
-1.0651	dial anthony milne
-1.0651	dial anthony pinker
-1.0651	dial anthony smith
-1.0651	dial anthony wordsworth
-1.0651	dial anthony young
-1.0835	dial bill </s>
-1.0835	dial bill carlton
-1.0835	dial bill davies
-1.0835	dial bill glover
-1.0835	dial bill johnson
-1.0835	dial bill jones
-1.0835	dial bill miller
-1.0835	dial bill milne
-1.0835	dial bill pinker
-1.0835	dial bill smith
-1.0835	dial bill wordsworth
-1.0835	dial bill young
-1.0835	dial charles </s>
-1.0835	dial charles carlton
-1.0835	dial charles davies
-1.0835	dial charles glover
-1.0835	dial charles johnson
-1.0835	dial charles jones
-1.0835	dial charles miller
-1.0835	dial charles milne
-1.0835	dial charles pinker
-1.0835	dial charles smith
-1.0835	dial charles wordsworth
-1.0835	dial charles young
-1.0835	dial david </s>
-1.0835	dial david carlton
-1.0835	dial david davies
-1.0835	dial david glover
-1.0835	dial david johnson
-1.0835	dial david jones
-1.0835	dial david miller
-1.0835	dial david milne
-1.0835	dial david pinker
-1.0835	dial david smith
-1.0835	dial david wordsworth
-1.0835	dial david young
-1.2044	dial doctor ann
-1.3013	dial doctor anthony
-1.2750	dial doctor bill
-1.2750	dial doctor charles
-1.3915	dial doctor david
-1.3293	dial doctor elaine
-1.2750	dial doctor james
-1.3549	dial doctor john
-1.3549	dial doctor keith
-1.3250	dial doctor michael
-1.2969	dial doctor mike
-1.2706	dial doctor norman
-1.2969	dial doctor phil
-1.2706	dial doctor richard
-1.3250	dial doctor simone
-1.2458	dial doctor steve
-1.3549	dial doctor susan
-1.3549	dial doctor ted
-1.2706	dial doctor tony
-1.3250	dial doctor wendy
-1.1000	dial double double
-1.0461	dial double eight
-1.1167	dial double five
-1.0839	dial double four
-1.1253	dial double nine
-1.0608	dial double oh
-1.1041	dial double one
-1.0417	dial double seven
-1.0564	dial double six
-1.0795	dial double three
-1.1478	dial double two
-1.0345	dial double zero
-1.0842	dial eight double
-1.1001	dial eight eight
-1.0881	dial eight five
-1.1339	dial eight four
-1.1472	dial eight nine
-1.1705	dial eight oh
-1.0576	dial eight one
-1.0798	dial eight seven
-1.0645	dial eight six
-1.1040	dial eight three
-1.0046	dial eight two
-0.9821	dial eight zero
-1.0835	dial elaine </s>
-1.0835	dial elaine carlton
-1.0835	dial elaine davies
-1.0835	dial elaine glover
-1.0835	dial elaine johnson
-1.0835	dial elaine jones
-1.0835	dial elaine miller
-1.0835	dial elaine milne
-1.0835	dial elaine pinker
-1.0835	dial elaine smith
-1.0835	dial elaine wordsworth
-1.0835	dial elaine young
-1.1373	dial five double
-1.0603	dial five eight
-1.0603	dial five five
-1.0638	dial five four
-1.0933	dial five nine
-1.0263	dial five oh
-1.1128	dial five one
-1.1124	dial five seven
-1.0851	dial five six
-1.1124	dial five three
-1.0559	dial five two
-1.0739	dial five zero
-1.0816	dial four double
-1.0895	dial four eight
-1.0441	dial four five
-1.1141	dial four four
-1.0855	dial four nine
-1.0700	dial four oh
-1.1099	dial four one
-1.0020	dial four seven
-1.1269	dial four six
-1.1313	dial four three
-1.0222	dial four two
-1.1269	dial four zero
-1.0835	dial james </s>
-1.0835	dial james carlton
-1.0835	dial james davies
-1.0835	dial james glover
-1.0835	dial james johnson
-1.0835	dial james jones
-1.0835	dial james miller
-1.0835	dial james milne
-1.0835	dial james pinker
-1.0835	dial james smith
-1.0835	dial james wordsworth
-1.0835	dial james young
-1.0835	dial john </s>
-1.0835	dial john carlton
-1.0835	dial john davies
-1.0835	dial john glover
-1.0835	dial john johnson
-1.0835	dial john jones
-1.0835	dial john miller
-1.0835	dial john milne
-1.0835	dial john pinker
-1.0835	dial john smith
-1.0835	dial john wordsworth
-1.0835	dial john young
-1.0835	dial keith </s>
-1.0835	dial keith carlton
-1.0835	dial keith davies
-1.0835	dial keith glover
-1.0835	dial keith johnson
-1.0835	dial keith jones
-1.0835	dial keith miller
-1.0835	dial keith milne
-1.0835	dial keith pinker
-1.0835	dial keith smith
-1.0835	dial keith wordsworth
-1.0835	dial keith young
-1.0835	dial michael </s>
-1.0835	dial michael carlton
-1.0835	dial michael davies
-1.0835	dial michael glover
-1.0835	dial michael johnson
-1.0835	dial michael jones
-1.0835	dial michael miller
-1.0835	dial michael milne
-1.0835	dial michael pinker
-1.0835	dial michael smith
-1.0835	dial michael wordsworth
-1.0835	dial michael young
-1.0835	dial mike </s>
-1.0835	dial mike carlton
-1.0835	dial mike davies
-1.0835	dial mike glover
-1.0835	dial mike johnson
-1.0835	dial mike jones
-1.0835	dial mike miller
-1.0835	dial mike milne
-1.0835	dial mike pinker
-1.0835	dial mike smith
-1.0835	dial mike wordsworth
-1.0835	dial mike young
-1.1059	dial nine double
-0.9972	dial nine eight
-1.0499	dial nine five
-1.1139	dial nine four
-1.1263	dial nine nine
-1.1221	dial nine oh
-1.0534	dial nine one
-1.0975	dial nine seven
-1.1261	dial nine six
-1.0420	dial nine three
-1.1219	dial nine two
-1.0490	dial nine zero
-1.0835	dial norman </s>
-1.0835	dial norman carlton
-1.0835	dial norman davies
-1.0835	dial norman glover
-1.0835	dial norman johnson
-1.0835	dial norman jones
-1.0835	dial norman miller
-1.0835	dial norman milne
-1.0835	dial norman pinker
-1.0835	dial norman smith
-1.0835	dial norman wordsworth
-1.0835	dial norman young
-1.3621	dial oh double
-1.0190	dial oh eight
-1.0291	dial oh five
-1.0395	dial oh four
-0.9583	dial oh nine
-1.4169	dial oh oh
-1.0501	dial oh one
-1.0334	dial oh seven
-0.9763	dial oh six
-1.0512	dial oh three
-1.0015	dial oh two
-1.3362	dial oh zero
-1.0513	dial one double
-1.0887	dial one eight
-1.1006	dial one five
-1.0696	dial one four
-1.0135	dial one nine
-1.1255	dial one oh
-1.0659	dial one one
-1.0690	dial one seven
-1.1127	dial one six
-1.1659	dial one three
-1.0690	dial one two
-1.0690	dial one zero
-1.0835	dial phil </s>
-1.0835	dial phil carlton
-1.0835	dial phil davies
-1.0835	dial phil glover
-1.0835	dial phil johnson
-1.0835	dial phil jones
-1.0835	dial phil miller
-1.0835	dial phil milne
-1.0835	dial phil pinker
-1.0835	dial phil smith
-1.0835	dial phil wordsworth
-1.0835	dial phil young
-1.2958	dial professor ann
-1.3238	dial professor anthony
-1.3538	dial professor bill
-1.2958	dial professor charles
-1.3538	dial professor david
-1.2958	dial professor elaine
-1.3860	dial professor james
-1.3195	dial professor john
-1.3494	dial professor keith
-1.2914	dial professor michael
-1.2914	dial professor mike
-1.2168	dial professor norman
-1.2914	dial professor phil
-1.2651	dial professor richard
-1.3494	dial professor simone
-1.3195	dial professor steve
-1.3494	dial professor susan
-1.2651	dial professor ted
-1.2403	dial professor tony
-1.2403	dial professor wendy
-1.0835	dial richard </s>
-1.0835	dial richard carlton
-1.0835	dial richard davies
-1.0835	dial richard glover
-1.0835	dial richard johnson
-1.0835	dial richard jones
-1.0835	dial richard miller
-1.0835	dial richard milne
-1.0835	dial richard pinker
-1.0835	dial richard smith
-1.0835	dial richard wordsworth
-1.0835	dial richard young
-1.0810	dial seven double
-1.0736	dial seven eight
-1.0663	dial seven five
-1.0848	dial seven four
-1.0810	dial seven nine
-1.0810	dial seven oh
-1.1081	dial seven one
-1.1325	dial seven seven
-1.0919	dial seven six
-1.0305	dial seven three
-1.0730	dial seven two
-1.0842	dial seven zero
-1.0835	dial simone </s>
-1.0835	dial simone carlton
-1.0835	dial simone davies
-1.0835	dial simone glover
-1.0835	dial simone johnson
-1.0835	dial simone jones
-1.0835	dial simone miller
-1.0835	dial simone milne
-1.0835	dial simone pinker
-1.0835	dial simone smith
-1.0835	dial simone wordsworth
-1.0835	dial simone young
-1.0851	dial six double
-1.1820	dial six eight
-1.0776	dial six five
-1.0666	dial six four
-1.1820	dial six nine
-1.0420	dial six oh
-1.0630	dial six one
-1.0845	dial six seven
-0.9953	dial six six
-1.1592	dial six three
-1.0143	dial six two
-1.0733	dial six zero
-1.0835	dial steve </s>
-1.0835	dial steve carlton
-1.0835	dial steve davies
-1.0835	dial steve glover
-1.0835	dial steve johnson
-1.0835	dial steve jones
-1.0835	dial steve miller
-1.0835	dial steve milne
-1.0835	dial steve pinker
-1.0835	dial steve smith
-1.0835	dial steve wordsworth
-1.0835	dial steve young
-1.0835	dial susan </s>
-1.0835	dial susan carlton
-1.0835	dial susan davies
-1.0835	dial susan glover
-1.0835	dial susan johnson
-1.0835	dial susan jones
-1.0835	dial susan miller
-1.0835	dial susan milne
-1.0835	dial susan pinker
-1.0835	dial susan smith
-1.0835	dial susan wordsworth
-1.0835	dial susan young
-1.0835	dial ted </s>
-1.0835	dial ted carlton
-1.0835	dial ted davies
-1.0835	dial ted glover
-1.0835	dial ted johnson
-1.0835	dial ted jones
-1.0835	dial ted miller
-1.0835	dial ted milne
-1.0835	dial ted pinker
-1.0835	dial ted smith
-1.0835	dial ted wordsworth
-1.0835	dial ted young
-1.0498	dial three double
-1.0647	dial three eight
-1.1173	dial three five
-1.0763	dial three four
-1.0425	dial three nine
-1.1304	dial three oh
-1.0763	dial three one
-1.0238	dial three seven
-1.0719	dial three six
-1.1260	dial three three
-1.1044	dial three two
-1.1129	dial three zero
-1.0835	dial tony </s>
-1.0835	dial tony carlton
-1.0835	dial tony davies
-1.0835	dial tony glover
-1.0835	dial tony johnson
-1.0835	dial tony jones
-1.0835	dial tony miller
-1.0835	dial tony milne
-1.0835	dial tony pinker
-1.0835	dial tony smith
-1.0835	dial tony wordsworth
-1.0835	dial tony young
-1.0524	dial two double
-1.0966	dial two eight
-1.1205	dial two five
-1.1458	dial two four
-1.0776	dial two nine
-1.1246	dial two oh
-1.1124	dial two one
-1.1040	dial two seven
-1.0079	dial two six
-1.0659	dial two three
-1.0587	dial two two
-1.0342	dial two zero
-1.0835	dial wendy </s>
-1.0835	dial wendy carlton
-1.0835	dial wendy davies
-1.0835	dial wendy glover
-1.0835	dial wendy johnson
-1.0835	dial wendy jones
-1.0835	dial wendy miller
-1.0835	dial wendy milne
-1.0835	dial wendy pinker
-1.0835	dial wendy smith
-1.0835	dial wendy wordsworth
-1.0835	dial wendy young
-1.1211	dial zero double
-1.0938	dial zero eight
-1.0576	dial zero five
-1.1545	dial zero four
-1.1375	dial zero nine
-1.0473	dial zero oh
-1.0753	dial zero one
-1.0857	dial zero seven
-1.0396	dial zero six
-1.0710	dial zero three
-1.0396	dial zero two
-1.0746	dial zero zero
-1.0237	doctor ann carlton
-1.0237	doctor ann davies
-0.9950	doctor ann glover
-1.0139	doctor ann johnson
-1.0044	doctor ann jones
-0.9769	doctor ann miller
-1.1620	doctor ann milne
-0.9907	doctor ann pinker
-1.0946	doctor ann smith
-1.1714	doctor ann wordsworth
-1.0830	doctor ann young
-1.0872	doctor anthony carlton
-0.9793	doctor anthony davies
-1.1101	doctor anthony glover
-1.0349	doctor anthony johnson
-1.0655	doctor anthony jones
-1.1598	doctor anthony miller
-1.0155	doctor anthony milne
-1.0942	doctor anthony pinker
-1.0112	doctor anthony smith
-0.9579	doctor anthony wordsworth
-1.0112	doctor anthony young
-1.0385	doctor bill carlton
-1.0799	doctor bill davies
-1.0288	doctor bill glover
-1.0288	doctor bill johnson
-1.0288	doctor bill jones
-1.0799	doctor bill miller
-1.0485	doctor bill milne
-1.0342	doctor bill pinker
-1.0244	doctor bill smith
-0.9874	doctor bill wordsworth
-1.1213	doctor bill young
-1.0098	doctor charles carlton
-0.9834	doctor charles davies
-1.1595	doctor charles glover
-1.0378	doctor charles johnson
-1.1469	doctor charles jones
-1.0378	doctor charles miller
-1.0378	doctor charles milne
-1.0334	doctor charles pinker
-1.0634	doctor charles smith
-1.0956	doctor charles wordsworth
-0.9308	doctor charles young
-1.0251	doctor david carlton
-1.1101	doctor david davies
-1.1468	doctor david glover
-0.9379	doctor david johnson
-1.1598	doctor david jones
-1.0349	doctor david miller
-0.9793	doctor david milne
-1.0405	doctor david pinker
-0.9837	doctor david smith
-1.0719	doctor david wordsworth
-1.0507	doctor david young
-1.0791	doctor elaine carlton
-1.0584	doctor elaine davies
-1.0686	doctor elaine glover
-1.0017	doctor elaine johnson
-1.0107	doctor elaine jones
-1.0484	doctor elaine miller
-1.0291	doctor elaine milne
-1.0441	doctor elaine pinker
-0.9886	doctor elaine smith
-1.0643	doctor elaine wordsworth
-1.1077	doctor elaine young
-1.0192	doctor james carlton
-1.0007	doctor james davies
-0.9830	doctor james glover
-1.0099	doctor james johnson
-1.0692	doctor james jones
-1.2348	doctor james miller
-1.0099	doctor james milne
-1.0865	doctor james pinker
-0.9964	doctor james smith
-1.0648	doctor james wordsworth
-1.0648	doctor james young
-1.0467	doctor john carlton
-1.0569	doctor john davies
-1.1004	doctor john glover
-1.0674	doctor john johnson
-1.0367	doctor john jones
-1.0080	doctor john miller
-0.9812	doctor john milne
-1.0130	doctor john pinker
-1.0737	doctor john smith
-1.0525	doctor john wordsworth
-1.0630	doctor john young
-1.0660	doctor keith carlton
-1.0981	doctor keith davies
-1.0557	doctor keith glover
-1.0171	doctor keith johnson
-1.0171	doctor keith jones
-1.0171	doctor keith miller
-0.9649	doctor keith milne
-1.1051	doctor keith pinker
-0.9859	doctor keith smith
-1.1408	doctor keith wordsworth
-1.0514	doctor keith young
-1.0251	doctor michael carlton
-1.0551	doctor michael davies
-1.1101	doctor michael glover
-1.0762	doctor michael johnson
-1.0762	doctor michael jones
-0.9971	doctor michael miller
-1.0551	doctor michael milne
-1.0612	doctor michael pinker
-0.9664	doctor michael smith
-1.0305	doctor michael wordsworth
-1.0507	doctor michael young
-1.0164	doctor mike carlton
-1.0078	doctor mike davies
-1.1968	doctor mike glover
-0.9519	doctor mike johnson
-0.9993	doctor mike jones
-1.0251	doctor mike miller
-1.0078	doctor mike milne
-1.0578	doctor mike pinker
-1.0208	doctor mike smith
-1.0982	doctor mike wordsworth
-1.1669	doctor mike young
-1.1112	doctor norman carlton
-0.9351	doctor norman davies
-1.0282	doctor norman glover
-1.1347	doctor norman johnson
-1.0782	doctor norman jones
-1.0575	doctor norman miller
-0.9506	doctor norman milne
-0.9964	doctor norman pinker
-1.0634	doctor norman smith
-1.1303	doctor norman wordsworth
-1.0532	doctor norman young
-1.1183	doctor phil carlton
-1.0713	doctor phil davies
-1.1061	doctor phil glover
-1.0942	doctor phil johnson
-0.9996	doctor phil jones
-1.0189	doctor phil miller
-0.9548	doctor phil milne
-1.0348	doctor phil pinker
-1.0898	doctor phil smith
-0.9678	doctor phil wordsworth
-1.0669	doctor phil young
-1.0447	doctor richard carlton
-1.0505	doctor richard davies
-1.0505	doctor richard glover
-1.0113	doctor richard johnson
-0.9753	doctor richard jones
-1.0937	doctor richard miller
-1.0873	doctor richard milne
-1.0346	doctor richard pinker
-1.0403	doctor richard smith
-1.0521	doctor richard wordsworth
-1.0581	doctor richard young
-1.0160	doctor simone carlton
-1.0740	doctor simone davies
-1.0440	doctor simone glover
-0.9568	doctor simone johnson
-0.9812	doctor simone jones
-1.1531	doctor simone miller
-1.0637	doctor simone milne
-1.0594	doctor simone pinker
-1.0801	doctor simone smith
-1.0116	doctor simone wordsworth
-1.0801	doctor simone young
-1.0199	doctor steve carlton
-1.0723	doctor steve davies
-1.1319	doctor steve glover
-1.0101	doctor steve johnson
-1.0199	doctor steve jones
-0.9391	doctor steve miller
-1.0101	doctor steve milne
-1.1275	doctor steve pinker
-1.1275	doctor steve smith
-0.9869	doctor steve wordsworth
-1.0908	doctor steve young
-1.0016	doctor susan carlton
-1.0108	doctor susan davies
-0.9839	doctor susan glover
-1.1031	doctor susan johnson
-1.1514	doctor susan jones
-1.1388	doctor susan miller
-1.0201	doctor susan milne
-0.9709	doctor susan pinker
-1.0351	doctor susan smith
-1.0158	doctor susan wordsworth
-1.0987	doctor susan young
-1.0324	doctor ted carlton
-0.9696	doctor ted davies
-1.0135	doctor ted glover
-1.0044	doctor ted johnson
-1.0728	doctor ted jones
-1.0945	doctor ted miller
-1.0624	doctor ted milne
-1.0185	doctor ted pinker
-1.0792	doctor ted smith
-1.1015	doctor ted wordsworth
-1.0580	doctor ted young
-0.9613	doctor tony carlton
-1.0728	doctor tony davies
-1.1174	doctor tony glover
-1.1058	doctor tony johnson
-0.9954	doctor tony jones
-1.0521	doctor tony miller
-1.0044	doctor tony milne
-1.0478	doctor tony pinker
-1.0091	doctor tony smith
-1.0685	doctor tony wordsworth
-1.0792	doctor tony young
-1.1058	doctor wendy carlton
-1.0422	doctor wendy davies
-1.1174	doctor wendy glover
-0.9954	doctor wendy johnson
-1.0624	doctor wendy jones
-1.0135	doctor wendy miller
-1.1293	doctor wendy milne
-1.0091	doctor wendy pinker
-1.0280	doctor wendy smith
-1.0478	doctor wendy wordsworth
-0.9652	doctor wendy young
-1.1855	double double double
-1.0598	double double eight
-1.1023	double double five
-1.1370	double double four
-1.0680	double double nine
-1.0344	double double oh
-1.0598	double double one
-1.0957	double double seven
-1.0535	double double six
-1.0762	double double three
-1.0595	double double two
-1.0699	double double zero
-0.7360	double eight </s>
-1.2723	double eight double
-1.1698	double eight eight
-1.1404	double eight five
-1.1863	double eight four
-1.1698	double eight nine
-1.1698	double eight oh
-1.1841	double eight one
-1.2014	double eight seven
-1.1192	double eight six
-1.1495	double eight three
-1.1574	double eight two
-1.1436	double eight zero
-0.7858	double five </s>
-1.2749	double five double
-1.1506	double five eight
-1.1166	double five five
-1.2006	double five four
-1.1240	double five nine
-1.1148	double five oh
-1.1366	double five one
-1.1623	double five seven
-1.1502	double five six
-1.1918	double five three
-1.1562	double five two
-1.1643	double five zero
-0.7316	double four </s>
-1.3248	double four double
-1.1210	double four eight
-1.1803	double four five
-1.1556	double four four
-1.1266	double four nine
-1.2065	double four oh
-1.2276	double four one
-1.1634	double four seven
-1.1279	double four six
-1.1676	double four three
-1.1553	double four two
-1.1394	double four zero
-0.7543	double nine </s>
-1.2813	double nine double
-1.1860	double nine eight
-1.1404	double nine five
-1.1881	double nine four
-1.1519	double nine nine
-1.1275	double nine oh
-1.1231	double nine one
-1.1533	double nine seven
-1.1573	double nine six
-1.1553	double nine three
-1.2008	double nine two
-1.1533	double nine zero
-0.7840	double oh </s>
-1.3089	double oh double
-1.2033	double oh eight
-1.1318	double oh five
-1.1128	double oh four
-1.1661	double oh nine
-1.1456	double oh oh
-1.1236	double oh one
-1.1392	double oh seven
-1.1373	double oh six
-1.1473	double oh three
-1.1921	double oh two
-1.1473	double oh zero
-0.7370	double one </s>
-1.2967	double one double
-1.1614	double one eight
-1.1975	double one five
-1.2042	double one four
-1.1780	double one nine
-1.1676	double one oh
-1.1313	double one one
-1.1612	double one seven
-1.1550	double one six
-1.1052	double one three
-1.1430	double one two
-1.1674	double one zero
-0.7383	double seven </s>
-1.2375	double seven double
-1.1786	double seven eight
-1.1559	double seven five
-1.1212	double seven four
-1.1959	double seven nine
-1.1579	double seven oh
-1.2332	double seven one
-1.1785	double seven seven
-1.1597	double seven six
-1.1700	double seven three
-1.1495	double seven two
-1.1186	double seven zero
-0.7491	double six </s>
-1.2432	double six double
-1.1644	double six eight
-1.1522	double six five
-1.1462	double six four
-1.1727	double six nine
-1.1685	double six oh
-1.1458	double six one
-1.1789	double six seven
-1.1811	double six six
-1.1245	double six three
-1.1725	double six two
-1.1704	double six zero
-0.7464	double three </s>
-1.3030	double three double
-1.1932	double three eight
-1.1535	double three five
-1.1191	double three four
-1.1642	double three nine
-1.1269	double three oh
-1.1576	double three one
-1.1641	double three seven
-1.1346	double three six
-1.1685	double three three
-1.1641	double three two
-1.1958	double three zero
-0.7234	double two </s>
-1.2660	double two double
-1.1961	double two eight
-1.1659	double two five
-1.1077	double two four
-1.1872	double two nine
-1.1916	double two oh
-1.1700	double two one
-1.1679	double two seven
-1.1238	double two six
-1.1513	double two three
-1.2076	double two two
-1.1658	double two zero
-0.7534	double zero </s>
-1.2701	double zero double
-1.1566	double zero eight
-1.1818	double zero five
-1.1883	double zero four
-1.1627	double zero nine
-1.1883	double zero oh
-1.1646	double zero one
-1.1284	double zero seven
-1.1342	double zero six
-1.1688	double zero three
-1.1839	double zero two
-1.0932	double zero zero
-0.0044	eight </s> <s>
-1.1867	eight double double
-1.1083	eight double eight
-1.1238	eight double five
-1.0420	eight double four
-1.1238	eight double nine
-1.0591	eight double oh
-1.0439	eight double one
-1.0339	eight double seven
-1.0626	eight double six
-1.0890	eight double three
-1.0106	eight double two
-1.1285	eight double zero
-0.7401	eight eight </s>
-1.2605	eight eight double
-1.1656	eight eight eight
-1.1249	eight eight five
-1.1231	eight eight four
-1.1950	eight eight nine
-1.1516	eight eight oh
-1.1778	eight eight one
-1.1552	eight eight seven
-1.1532	eight eight six
-1.1884	eight eight three
-1.1715	eight eight two
-1.1841	eight eight zero
-0.8086	eight five </s>
-1.2840	eight five double
-1.1455	eight five eight
-1.1138	eight five five
