BIGRAM: method Katz, cutoff 0
  coef[7]: 0.990000 0.990000 0.990000 0.990000 0.990000 0.990000 0.990000

\data\
ngram 1=121
ngram 2=1177

\1-grams:
-0.9995	</S>	-2.0000
-99.9900	<S>	-2.1523
-1.5984	A	-1.9767
-2.6515	ADDRESS	-1.9522
-5.4084	AM	-2.0000
-2.0436	AN	-1.9941
-1.4383	AND	-2.1878
-2.3320	ANN	-4.3566
-5.6515	ANN'S	-1.9926
-2.3321	ANTHONY	-4.3566
-5.6515	ANTHONY'S	-1.9926
-5.1074	APPOINTMENT	-2.5281
-1.7597	ARRANGE	-1.9849
-2.3378	BILL	-4.3509
-5.6515	BILL'S	-1.9926
-1.7533	CALL	-2.9679
-1.7633	CANCEL	-1.9906
-2.2299	CARLTON	-1.9177
-4.3504	CARLTON'S	-1.9926
-2.3288	CHARLES	-4.3599
-5.6515	CHARLES'S	-1.9926
-1.8101	COPY	-1.9857
-2.3393	DAVID	-4.3493
-5.6515	DAVID'S	-1.9926
-2.2275	DAVIES	-1.9177
-4.3504	DAVIES'S	-1.9926
-1.9798	DIAL	-2.8057
-2.2578	DOCTOR	-2.4295
-1.6968	DOUBLE	-2.0837
-1.6103	EIGHT	-2.0285
-2.3346	ELAINE	-4.3541
-5.6515	ELAINE'S	-1.9926
-2.1734	EMAIL	-1.9847
-2.1696	FAX	-1.9847
-2.6905	FIND	-1.9935
-4.9313	FIRST	-2.4735
-1.6042	FIVE	-2.0264
-1.6103	FOUR	-2.0291
-5.4084	FREE	-1.9841
-2.5073	FRIDAY	-1.9542
-1.8916	GET	-1.9935
-2.2404	GLOVER	-1.9177
-2.8647	HOW	-1.9994
-5.4084	I	-2.0000
-2.1618	INTERVIEW	-1.9841
-2.7606	IS	-3.5675
-2.3333	JAMES	-4.3554
-5.6515	JAMES'S	-1.9926
-2.3343	JOHN	-4.3544
-5.6515	JOHN'S	-1.9926
-2.2359	JOHNSON	-1.9177
-2.2369	JONES	-1.9177
-4.3504	JONES'S	-1.9926
-2.3324	KEITH	-4.3721
-4.9313	LAST	-2.4735
-2.2489	LETTER	-1.9857
-2.8647	LONG	-1.9992
-1.8276	ME	-2.9236
-2.0758	MEETING	-5.3001
-2.3280	MICHAEL	-4.3607
-5.6515	MICHAEL'S	-1.9926
-2.3271	MIKE	-4.3616
-5.6515	MIKE'S	-1.9926
-2.2310	MILLER	-1.9177
-4.3504	MILLER'S	-1.9926
-2.2320	MILNE	-1.9177
-2.5003	MONDAY	-1.9542
-2.8598	MY	-1.9963
-1.6051	NINE	-2.0268
-2.3294	NORMAN	-4.3593
-5.6515	NORMAN'S	-1.9926
-2.6507	NUMBER	-1.9522
-2.3859	OF	-2.3501
-1.5603	OH	-2.0390
-1.8043	ON	-1.9931
-1.6051	ONE	-2.0298
-2.3347	PHIL	-4.3540
-5.6515	PHIL'S	-1.9926
-1.7516	PHONE	-2.1568
-2.2318	PINKER	-1.9177
-4.3559	PINKER'S	-1.9926
-1.8438	PLEASE	-2.0301
-2.2572	PROFESSOR	-2.4227
-2.1037	RICHARD	-4.5850
-5.6515	RICHARD'S	-1.9926
-2.1555	SEMINAR	-1.9841
-1.7730	SEND	-1.9849
-1.6059	SEVEN	-2.0295
-2.3289	SIMONE	-4.3598
-5.6515	SIMONE'S	-1.9926
-1.6038	SIX	-2.0272
-2.2247	SMITH	-1.9177
-4.3504	SMITH'S	-1.9926
-2.3364	STEVE	-4.3522
-5.6515	STEVE'S	-1.9926
-2.3309	SUSAN	-4.3578
-5.6515	SUSAN'S	-1.9926
-2.3353	TED	-4.3533
-5.6515	TED'S	-1.9926
-2.1669	TELECONFERENCE	-1.9841
-2.9525	TELEPHONE	-1.9990
-1.6704	THE	-2.0726
-1.6102	THREE	-2.0321
-2.4978	THURSDAY	-1.9542
-1.4901	TO	-2.4671
-1.9921	TODAY	-1.9542
-1.9936	TOMORROW	-1.9542
-2.3330	TONY	-4.3557
-5.6515	TONY'S	-1.9926
-2.5047	TUESDAY	-1.9542
-1.6063	TWO	-2.0310
-2.5063	WEDNESDAY	-1.9542
-2.3315	WENDY	-4.3572
-5.6515	WENDY'S	-1.9926
-3.4508	WHAT	-1.9992
-4.7095	WHEN	-2.6982
-1.4437	WITH	-2.4546
-2.2326	WORDSWORTH	-1.9177
-4.3504	WORDSWORTH'S	-1.9926
-2.2281	YOUNG	-1.9177
-1.6126	ZERO	-2.0300

\2-grams:
-0.0044	</S> <S>
-0.8391	<S> ARRANGE
-1.0281	<S> CALL
-0.8443	<S> CANCEL
-1.0382	<S> DIAL
-1.8796	<S> FIND
-0.9677	<S> GET
-1.8696	<S> HOW
-1.0205	<S> PHONE
-0.8443	<S> PLEASE
-0.8419	<S> SEND
-2.4512	<S> WHAT
-3.7099	<S> WHEN
-0.6542	A FAX
-0.6550	A LETTER
-0.8612	A MEETING
-0.8602	A PHONE
-0.8603	A SEMINAR
-0.8750	A TELECONFERENCE
-1.1054	ADDRESS </S>
-0.0402	ADDRESS OF
-0.0044	AM I
-0.2139	AN EMAIL
-0.4214	AN INTERVIEW
-1.5989	AND ANN
-1.5787	AND ANTHONY
-1.5855	AND BILL
-1.5790	AND CHARLES
-0.3761	AND COPY
-1.5865	AND DAVID
-1.8785	AND DOCTOR
-1.5840	AND ELAINE
-1.5878	AND JAMES
-1.5945	AND JOHN
-1.5814	AND KEITH
-1.5716	AND MICHAEL
-1.5744	AND MIKE
-1.5835	AND NORMAN
-1.5868	AND PHIL
-1.8722	AND PROFESSOR
-1.3009	AND RICHARD
-1.5840	AND SIMONE
-1.5904	AND STEVE
-1.5611	AND SUSAN
-1.5741	AND TED
-1.5774	AND TONY
-1.5868	AND WENDY
-1.2348	ANN </S>
-0.8109	ANN AND
-1.2251	ANN CARLTON
-3.3238	ANN CARLTON'S
-1.2013	ANN DAVIES
-3.3238	ANN DAVIES'S
-1.2339	ANN GLOVER
-1.2313	ANN JOHNSON
-1.2295	ANN JONES
-3.3238	ANN JONES'S
-1.2139	ANN MILLER
-3.3238	ANN MILLER'S
-1.2071	ANN MILNE
-1.3326	ANN ON
-1.1883	ANN PINKER
-3.3238	ANN PINKER'S
-1.2013	ANN SMITH
-3.3238	ANN SMITH'S
-1.4837	ANN TODAY
-1.4712	ANN TOMORROW
-1.2088	ANN WORDSWORTH
-3.3238	ANN WORDSWORTH'S
-1.2251	ANN YOUNG
-0.6064	ANN'S ADDRESS
-0.6064	ANN'S EMAIL
-0.6064	ANN'S FAX
-0.6064	ANN'S TELEPHONE
-1.2286	ANTHONY </S>
-0.8238	ANTHONY AND
-1.2251	ANTHONY CARLTON
-3.3237	ANTHONY CARLTON'S
-1.1980	ANTHONY DAVIES
-3.3237	ANTHONY DAVIES'S
-1.2242	ANTHONY GLOVER
-1.2303	ANTHONY JOHNSON
-1.2122	ANTHONY JONES
-3.3237	ANTHONY JONES'S
-1.2549	ANTHONY MILLER
-3.3237	ANTHONY MILLER'S
-1.2004	ANTHONY MILNE
-1.3205	ANTHONY ON
-1.2181	ANTHONY PINKER
-3.3237	ANTHONY PINKER'S
-1.2029	ANTHONY SMITH
-3.3237	ANTHONY SMITH'S
-1.4666	ANTHONY TODAY
-1.4575	ANTHONY TOMORROW
-1.1923	ANTHONY WORDSWORTH
-3.3237	ANTHONY WORDSWORTH'S
-1.2088	ANTHONY YOUNG
-0.6064	ANTHONY'S ADDRESS
-0.6064	ANTHONY'S EMAIL
-0.6064	ANTHONY'S FAX
-0.6064	ANTHONY'S TELEPHONE
-0.1461	APPOINTMENT ON
-0.8495	APPOINTMENT TODAY
-0.8495	APPOINTMENT TOMORROW
-0.1008	ARRANGE A
-0.7054	ARRANGE AN
-1.2211	BILL </S>
-0.8178	BILL AND
-1.1956	BILL CARLTON
-3.3180	BILL CARLTON'S
-1.2107	BILL DAVIES
-3.3180	BILL DAVIES'S
-1.2300	BILL GLOVER
-1.2185	BILL JOHNSON
-1.2176	BILL JONES
-3.3180	BILL JONES'S
-1.2090	BILL MILLER
-3.3180	BILL MILLER'S
-1.2345	BILL MILNE
-1.3405	BILL ON
-1.2133	BILL PINKER
-3.3180	BILL PINKER'S
-1.1874	BILL SMITH
-3.3180	BILL SMITH'S
-1.4717	BILL TODAY
-1.4892	BILL TOMORROW
-1.2363	BILL WORDSWORTH
-3.3180	BILL WORDSWORTH'S
-1.2005	BILL YOUNG
-0.6064	BILL'S ADDRESS
-0.6064	BILL'S EMAIL
-0.6064	BILL'S FAX
-0.6064	BILL'S TELEPHONE
-3.1244	CALL ANN
-3.1244	CALL ANTHONY
-3.1244	CALL BILL
-3.1244	CALL CHARLES
-3.1244	CALL DAVID
-1.9941	CALL DOCTOR
-1.3370	CALL DOUBLE
-1.3560	CALL EIGHT
-3.1200	CALL ELAINE
-1.3594	CALL FIVE
-1.3547	CALL FOUR
-3.1200	CALL JAMES
-3.1200	CALL JOHN
-3.1200	CALL KEITH
-3.1200	CALL MICHAEL
-3.1385	CALL MIKE
-1.3386	CALL NINE
-3.1200	CALL NORMAN
-1.0601	CALL OH
-1.3547	CALL ONE
-3.1200	CALL PHIL
-1.9857	CALL PROFESSOR
-3.1200	CALL RICHARD
-1.3588	CALL SEVEN
-3.1385	CALL SIMONE
-1.3541	CALL SIX
-3.1200	CALL STEVE
-3.1200	CALL SUSAN
-3.1200	CALL TED
-1.3480	CALL THREE
-3.1200	CALL TONY
-1.3840	CALL TWO
-3.1200	CALL WENDY
-0.4063	CALL WITH
-1.3751	CALL ZERO
-0.0044	CANCEL THE
-0.5673	CARLTON </S>
-0.4800	CARLTON AND
-0.7534	CARLTON ON
-0.9707	CARLTON TODAY
-0.9804	CARLTON TOMORROW
-0.6064	CARLTON'S ADDRESS
-0.6064	CARLTON'S EMAIL
-0.6064	CARLTON'S FAX
-0.6064	CARLTON'S TELEPHONE
-1.2453	CHARLES </S>
-0.8182	CHARLES AND
-1.2046	CHARLES CARLTON
-3.3270	CHARLES CARLTON'S
-1.1948	CHARLES DAVIES
-3.3270	CHARLES DAVIES'S
-1.2444	CHARLES GLOVER
-1.2046	CHARLES JOHNSON
-1.2417	CHARLES JONES
-3.3270	CHARLES JONES'S
-1.2087	CHARLES MILLER
-3.3270	CHARLES MILLER'S
-1.2121	CHARLES MILNE
-1.3589	CHARLES ON
-1.2172	CHARLES PINKER
-3.3270	CHARLES PINKER'S
-1.2029	CHARLES SMITH
-3.3270	CHARLES SMITH'S
-1.4520	CHARLES TODAY
-1.4505	CHARLES TOMORROW
-1.2062	CHARLES WORDSWORTH
-3.3270	CHARLES WORDSWORTH'S
-1.2104	CHARLES YOUNG
-0.6064	CHARLES'S ADDRESS
-0.6064	CHARLES'S EMAIL
-0.6064	CHARLES'S FAX
-0.6064	CHARLES'S TELEPHONE
-0.0044	COPY TO
-1.2495	DAVID </S>
-0.8239	DAVID AND
-1.2240	DAVID CARLTON
-3.3165	DAVID CARLTON'S
-1.1990	DAVID DAVIES
-3.3165	DAVID DAVIES'S
-1.2284	DAVID GLOVER
-1.1990	DAVID JOHNSON
-1.2231	DAVID JONES
-3.3165	DAVID JONES'S
-1.2109	DAVID MILLER
-3.3165	DAVID MILLER'S
-1.2375	DAVID MILNE
-1.3276	DAVID ON
-1.2075	DAVID PINKER
-3.3165	DAVID PINKER'S
-1.1973	DAVID SMITH
-3.3165	DAVID SMITH'S
-1.4593	DAVID TODAY
-1.4926	DAVID TOMORROW
-1.1965	DAVID WORDSWORTH
-3.3165	DAVID WORDSWORTH'S
-1.2024	DAVID YOUNG
-0.6064	DAVID'S ADDRESS
-0.6064	DAVID'S EMAIL
-0.6064	DAVID'S FAX
-0.6064	DAVID'S TELEPHONE
-0.5579	DAVIES </S>
-0.4753	DAVIES AND
-0.7675	DAVIES ON
-0.9820	DAVIES TODAY
-0.9851	DAVIES TOMORROW
-0.6064	DAVIES'S ADDRESS
-0.6064	DAVIES'S EMAIL
-0.6064	DAVIES'S FAX
-0.6064	DAVIES'S TELEPHONE
-2.8978	DIAL ANN
-2.9163	DIAL ANTHONY
-2.8978	DIAL BILL
-2.8978	DIAL CHARLES
-2.8978	DIAL DAVID
-1.7770	DIAL DOCTOR
-1.1572	DIAL DOUBLE
-1.1485	DIAL EIGHT
-2.8935	DIAL ELAINE
-1.1279	DIAL FIVE
-1.1512	DIAL FOUR
-2.8935	DIAL JAMES
-2.8935	DIAL JOHN
-2.8935	DIAL KEITH
-2.8935	DIAL MICHAEL
-2.8935	DIAL MIKE
-1.1348	DIAL NINE
-2.8935	DIAL NORMAN
-0.8441	DIAL OH
-1.1440	DIAL ONE
-2.8935	DIAL PHIL
-1.7782	DIAL PROFESSOR
-2.8935	DIAL RICHARD
-1.1326	DIAL SEVEN
-2.8935	DIAL SIMONE
-1.1322	DIAL SIX
-2.8935	DIAL STEVE
-2.8935	DIAL SUSAN
-2.8935	DIAL TED
-1.1564	DIAL THREE
-2.8935	DIAL TONY
-1.1322	DIAL TWO
-2.8935	DIAL WENDY
-1.1236	DIAL ZERO
-1.3374	DOCTOR ANN
-1.3262	DOCTOR ANTHONY
-1.3225	DOCTOR BILL
-1.3135	DOCTOR CHARLES
-1.3262	DOCTOR DAVID
-1.3126	DOCTOR ELAINE
-1.3225	DOCTOR JAMES
-1.3200	DOCTOR JOHN
-1.3109	DOCTOR KEITH
-1.3218	DOCTOR MICHAEL
-1.2848	DOCTOR MIKE
-1.3091	DOCTOR NORMAN
-1.3378	DOCTOR PHIL
-1.0804	DOCTOR RICHARD
-1.3029	DOCTOR SIMONE
-1.3368	DOCTOR STEVE
-1.3172	DOCTOR SUSAN
-1.3145	DOCTOR TED
-1.3145	DOCTOR TONY
-1.3145	DOCTOR WENDY
-1.1732	DOUBLE DOUBLE
-1.0653	DOUBLE EIGHT
-1.0705	DOUBLE FIVE
-1.0734	DOUBLE FOUR
-1.0614	DOUBLE NINE
-1.0834	DOUBLE OH
-1.0757	DOUBLE ONE
-1.0708	DOUBLE SEVEN
-1.0725	DOUBLE SIX
-1.0938	DOUBLE THREE
-1.0750	DOUBLE TWO
-1.0762	DOUBLE ZERO
-0.8324	EIGHT </S>
-1.2425	EIGHT DOUBLE
-1.1559	EIGHT EIGHT
-1.1298	EIGHT FIVE
-1.1597	EIGHT FOUR
-1.1446	EIGHT NINE
-1.1429	EIGHT OH
-1.1361	EIGHT ONE
-1.1439	EIGHT SEVEN
-1.1456	EIGHT SIX
-1.1496	EIGHT THREE
-1.1260	EIGHT TWO
-1.1482	EIGHT ZERO
-1.2157	ELAINE </S>
-0.8165	ELAINE AND
-1.2089	ELAINE CARLTON
-3.3213	ELAINE CARLTON'S
-1.2140	ELAINE DAVIES
-3.3213	ELAINE DAVIES'S
-1.2460	ELAINE GLOVER
-1.1963	ELAINE JOHNSON
-1.2261	ELAINE JONES
-3.3213	ELAINE JONES'S
-1.2200	ELAINE MILLER
-3.3213	ELAINE MILLER'S
-1.2191	ELAINE MILNE
-1.3169	ELAINE ON
-1.2191	ELAINE PINKER
-3.3213	ELAINE PINKER'S
-1.1755	ELAINE SMITH
-3.3213	ELAINE SMITH'S
-1.4687	ELAINE TODAY
-1.5040	ELAINE TOMORROW
-1.2332	ELAINE WORDSWORTH
-3.3213	ELAINE WORDSWORTH'S
-1.2165	ELAINE YOUNG
-0.6064	ELAINE'S ADDRESS
-0.6064	ELAINE'S EMAIL
-0.6064	ELAINE'S FAX
-0.6064	ELAINE'S TELEPHONE
-0.7794	EMAIL ADDRESS
-0.0842	EMAIL TO
-0.7857	FAX NUMBER
-0.0829	FAX TO
-0.0044	FIND ME
-0.4815	FIRST APPOINTMENT
-0.1761	FIRST MEETING
-0.8369	FIVE </S>
-1.2547	FIVE DOUBLE
-1.1464	FIVE EIGHT
-1.1306	FIVE FIVE
-1.1509	FIVE FOUR
-1.1389	FIVE NINE
-1.1309	FIVE OH
-1.1380	FIVE ONE
-1.1438	FIVE SEVEN
-1.1431	FIVE SIX
-1.1462	FIVE THREE
-1.1475	FIVE TWO
-1.1471	FIVE ZERO
-0.8283	FOUR </S>
-1.2341	FOUR DOUBLE
-1.1680	FOUR EIGHT
-1.1534	FOUR FIVE
-1.1441	FOUR FOUR
-1.1353	FOUR NINE
-1.1524	FOUR OH
-1.1468	FOUR ONE
-1.1461	FOUR SEVEN
-1.1288	FOUR SIX
-1.1416	FOUR THREE
-1.1320	FOUR TWO
-1.1493	FOUR ZERO
-0.1505	FREE ON
-0.8495	FREE TODAY
-0.8495	FREE TOMORROW
-0.0044	FRIDAY </S>
-0.0044	GET ME
-0.5618	GLOVER </S>
-0.4754	GLOVER AND
-0.7552	GLOVER ON
-0.9832	GLOVER TODAY
-0.9938	GLOVER TOMORROW
-0.0044	HOW LONG
-0.0044	I FREE
-0.0044	INTERVIEW WITH
-2.0457	IS ANN
-2.8952	IS ANN'S
-2.0457	IS ANTHONY
-2.8952	IS ANTHONY'S
-2.0457	IS BILL
-2.8952	IS BILL'S
-2.0457	IS CHARLES
-2.8952	IS CHARLES'S
-2.0457	IS DAVID
-2.8952	IS DAVID'S
-2.0457	IS ELAINE
-2.8952	IS ELAINE'S
-2.0457	IS JAMES
-2.8952	IS JAMES'S
-2.0457	IS JOHN
-2.8952	IS JOHN'S
-2.0615	IS KEITH
-2.0457	IS MICHAEL
-2.8952	IS MICHAEL'S
-2.0457	IS MIKE
-2.8952	IS MIKE'S
-0.0991	IS MY
-2.0457	IS NORMAN
-2.8952	IS NORMAN'S
-2.0457	IS PHIL
-2.8952	IS PHIL'S
-2.0457	IS RICHARD
-2.8952	IS RICHARD'S
-2.0457	IS SIMONE
-2.8952	IS SIMONE'S
-2.0457	IS STEVE
-2.8952	IS STEVE'S
-2.0457	IS SUSAN
-2.8952	IS SUSAN'S
-2.0457	IS TED
-2.8952	IS TED'S
-2.0457	IS TONY
-2.8952	IS TONY'S
-2.0457	IS WENDY
-2.8952	IS WENDY'S
-1.2247	JAMES </S>
-0.8151	JAMES AND
-1.2001	JAMES CARLTON
-3.3225	JAMES CARLTON'S
-1.2187	JAMES DAVIES
-3.3225	JAMES DAVIES'S
-1.1992	JAMES GLOVER
-1.2256	JAMES JOHNSON
-1.2187	JAMES JONES
-3.3225	JAMES JONES'S
-1.2318	JAMES MILLER
-3.3225	JAMES MILLER'S
-1.2300	JAMES MILNE
-1.3532	JAMES ON
-1.2051	JAMES PINKER
-3.3225	JAMES PINKER'S
-1.1903	JAMES SMITH
-3.3225	JAMES SMITH'S
-1.4825	JAMES TODAY
-1.4608	JAMES TOMORROW
-1.2178	JAMES WORDSWORTH
-3.3225	JAMES WORDSWORTH'S
-1.2187	JAMES YOUNG
-0.6064	JAMES'S ADDRESS
-0.6064	JAMES'S EMAIL
-0.6064	JAMES'S FAX
-0.6064	JAMES'S TELEPHONE
-1.2177	JOHN </S>
-0.8161	JOHN AND
-1.2211	JOHN CARLTON
-3.3215	JOHN CARLTON'S
-1.2041	JOHN DAVIES
-3.3215	JOHN DAVIES'S
-1.2185	JOHN GLOVER
-1.2177	JOHN JOHNSON
-1.1991	JOHN JONES
-3.3215	JOHN JONES'S
-1.2066	JOHN MILLER
-3.3215	JOHN MILLER'S
-1.2117	JOHN MILNE
-1.3727	JOHN ON
-1.2159	JOHN PINKER
-3.3215	JOHN PINKER'S
-1.1852	JOHN SMITH
-3.3215	JOHN SMITH'S
-1.4705	JOHN TODAY
-1.4895	JOHN TOMORROW
-1.2299	JOHN WORDSWORTH
-3.3215	JOHN WORDSWORTH'S
-1.2273	JOHN YOUNG
-0.6064	JOHN'S ADDRESS
-0.6064	JOHN'S EMAIL
-0.6064	JOHN'S FAX
-0.6064	JOHN'S TELEPHONE
-0.5614	JOHNSON </S>
-0.4776	JOHNSON AND
-0.7608	JOHNSON ON
-0.9854	JOHNSON TODAY
-0.9763	JOHNSON TOMORROW
-0.5672	JONES </S>
-0.4851	JONES AND
-0.7533	JONES ON
-0.9683	JONES TODAY
-0.9675	JONES TOMORROW
-0.6064	JONES'S ADDRESS
-0.6064	JONES'S EMAIL
-0.6064	JONES'S FAX
-0.6064	JONES'S TELEPHONE
-1.2481	KEITH </S>
-0.8106	KEITH AND
-1.2136	KEITH CARLTON
-3.3235	KEITH CARLTON'S
-1.2179	KEITH DAVIES
-3.3235	KEITH DAVIES'S
-1.1961	KEITH GLOVER
-1.2381	KEITH JOHNSON
-1.2266	KEITH JONES
-3.3235	KEITH JONES'S
-1.1994	KEITH MILLER
-3.3235	KEITH MILLER'S
-1.1953	KEITH MILNE
-1.3589	KEITH ON
-1.2187	KEITH PINKER
-3.4484	KEITH PINKER'S
-1.2127	KEITH SMITH
-3.3235	KEITH SMITH'S
-1.4603	KEITH TODAY
-1.4914	KEITH TOMORROW
-1.2179	KEITH WORDSWORTH
-3.3235	KEITH WORDSWORTH'S
-1.1994	KEITH YOUNG
-0.4815	LAST APPOINTMENT
-0.1761	LAST MEETING
-0.0044	LETTER TO
-0.0044	LONG IS
-3.0501	ME ANN
-3.0501	ME ANTHONY
-3.0501	ME BILL
-3.0501	ME CHARLES
-3.0501	ME DAVID
-1.9404	ME DOCTOR
-1.2826	ME DOUBLE
-1.2703	ME EIGHT
-3.0457	ME ELAINE
-1.2864	ME FIVE
-1.2814	ME FOUR
-3.0457	ME JAMES
-3.0457	ME JOHN
-3.0457	ME KEITH
-3.0457	ME MICHAEL
-3.0457	ME MIKE
-1.2886	ME NINE
-3.0457	ME NORMAN
-0.9768	ME OH
-1.2724	ME ONE
-3.0457	ME PHIL
-1.9263	ME PROFESSOR
-3.0457	ME RICHARD
-1.2972	ME SEVEN
-3.0457	ME SIMONE
-1.2697	ME SIX
-3.0457	ME STEVE
-3.0457	ME SUSAN
-3.0457	ME TED
-0.5584	ME THE
-1.2774	ME THREE
-3.0457	ME TONY
-1.2746	ME TWO
-3.0457	ME WENDY
-1.2902	ME ZERO
-2.8767	MEETING ON
-3.5800	MEETING TODAY
-3.7050	MEETING TOMORROW
-0.0008	MEETING WITH
-1.2257	MICHAEL </S>
-0.8066	MICHAEL AND
-1.2292	MICHAEL CARLTON
-3.3278	MICHAEL CARLTON'S
-1.2037	MICHAEL DAVIES
-3.3278	MICHAEL DAVIES'S
-1.2070	MICHAEL GLOVER
-1.2327	MICHAEL JOHNSON
-1.2318	MICHAEL JONES
-3.3278	MICHAEL JONES'S
-1.2004	MICHAEL MILLER
-3.3278	MICHAEL MILLER'S
-1.2534	MICHAEL MILNE
-1.3138	MICHAEL ON
-1.2154	MICHAEL PINKER
-3.3278	MICHAEL PINKER'S
-1.1955	MICHAEL SMITH
-3.3278	MICHAEL SMITH'S
-1.4958	MICHAEL TODAY
-1.4498	MICHAEL TOMORROW
-1.2265	MICHAEL WORDSWORTH
-3.3278	MICHAEL WORDSWORTH'S
-1.2112	MICHAEL YOUNG
-0.6064	MICHAEL'S ADDRESS
-0.6064	MICHAEL'S EMAIL
-0.6064	MICHAEL'S FAX
-0.6064	MICHAEL'S TELEPHONE
-1.2310	MIKE </S>
-0.8042	MIKE AND
-1.1957	MIKE CARLTON
-3.3288	MIKE CARLTON'S
-1.2180	MIKE DAVIES
-3.3288	MIKE DAVIES'S
-1.2362	MIKE GLOVER
-1.1916	MIKE JOHNSON
-1.2345	MIKE JONES
-3.3288	MIKE JONES'S
-1.2223	MIKE MILLER
-3.3288	MIKE MILLER'S
-1.2275	MIKE MILNE
-1.3211	MIKE ON
-1.2223	MIKE PINKER
-3.3288	MIKE PINKER'S
-1.2206	MIKE SMITH
-3.3288	MIKE SMITH'S
-1.4855	MIKE TODAY
-1.4701	MIKE TOMORROW
-1.2079	MIKE WORDSWORTH
-3.3288	MIKE WORDSWORTH'S
-1.2180	MIKE YOUNG
-0.6064	MIKE'S ADDRESS
-0.6064	MIKE'S EMAIL
-0.6064	MIKE'S FAX
-0.6064	MIKE'S TELEPHONE
-0.5612	MILLER </S>
-0.4736	MILLER AND
-0.7663	MILLER ON
-0.9906	MILLER TODAY
-0.9753	MILLER TOMORROW
-0.6064	MILLER'S ADDRESS
-0.6064	MILLER'S EMAIL
-0.6064	MILLER'S FAX
-0.6064	MILLER'S TELEPHONE
-0.5545	MILNE </S>
-0.4826	MILNE AND
-0.7733	MILNE ON
-0.9686	MILNE TODAY
-0.9752	MILNE TOMORROW
-0.0044	MONDAY </S>
-2.0759	MY FIRST
-2.0759	MY LAST
-0.0118	MY MEETING
-0.8298	NINE </S>
-1.2471	NINE DOUBLE
-1.1422	NINE EIGHT
-1.1405	NINE FIVE
-1.1572	NINE FOUR
-1.1451	NINE NINE
-1.1362	NINE OH
-1.1406	NINE ONE
-1.1327	NINE SEVEN
-1.1519	NINE SIX
-1.1427	NINE THREE
-1.1483	NINE TWO
-1.1463	NINE ZERO
-1.2520	NORMAN </S>
-0.8062	NORMAN AND
-1.2166	NORMAN CARLTON
-3.3264	NORMAN CARLTON'S
-1.2191	NORMAN DAVIES
-3.3264	NORMAN DAVIES'S
-1.2322	NORMAN GLOVER
-1.2348	NORMAN JOHNSON
-1.2073	NORMAN JONES
-3.3264	NORMAN JONES'S
-1.2031	NORMAN MILLER
-3.3264	NORMAN MILLER'S
-1.1941	NORMAN MILNE
-1.3167	NORMAN ON
-1.2330	NORMAN PINKER
-3.3264	NORMAN PINKER'S
-1.2106	NORMAN SMITH
-3.3264	NORMAN SMITH'S
-1.4558	NORMAN TODAY
-1.4342	NORMAN TOMORROW
-1.2474	NORMAN WORDSWORTH
-3.3264	NORMAN WORDSWORTH'S
-1.2132	NORMAN YOUNG
-0.6064	NORMAN'S ADDRESS
-0.6064	NORMAN'S EMAIL
-0.6064	NORMAN'S FAX
-0.6064	NORMAN'S TELEPHONE
-1.1048	NUMBER </S>
-0.0403	NUMBER OF
-1.5932	OF ANN
-1.5932	OF ANTHONY
-1.5909	OF BILL
-1.5886	OF CHARLES
-1.6001	OF DAVID
-0.6164	OF DOCTOR
-1.5978	OF ELAINE
-1.5888	OF JAMES
-1.5866	OF JOHN
-1.5888	OF KEITH
-1.5888	OF MICHAEL
-1.5888	OF MIKE
-1.5843	OF NORMAN
-1.5911	OF PHIL
-0.6211	OF PROFESSOR
-1.5843	OF RICHARD
-1.5911	OF SIMONE
-1.5866	OF STEVE
-1.5866	OF SUSAN
-1.5843	OF TED
-1.5866	OF TONY
-1.5866	OF WENDY
-0.8787	OH </S>
-1.2979	OH DOUBLE
-1.1221	OH EIGHT
-1.1109	OH FIVE
-1.1303	OH FOUR
-1.1198	OH NINE
-1.2058	OH OH
-1.1144	OH ONE
-1.1217	OH SEVEN
-1.1091	OH SIX
-1.1147	OH THREE
-1.1168	OH TWO
-1.1985	OH ZERO
-0.7074	ON FRIDAY
-0.7003	ON MONDAY
-0.6979	ON THURSDAY
-0.7048	ON TUESDAY
-0.7064	ON WEDNESDAY
-0.8414	ONE </S>
-1.2344	ONE DOUBLE
-1.1391	ONE EIGHT
-1.1464	ONE FIVE
-1.1421	ONE FOUR
-1.1496	ONE NINE
-1.1539	ONE OH
-1.1407	ONE ONE
-1.1376	ONE SEVEN
-1.1325	ONE SIX
-1.1450	ONE THREE
-1.1476	ONE TWO
-1.1354	ONE ZERO
-1.2216	PHIL </S>
-0.8035	PHIL AND
-1.2313	PHIL CARLTON
-3.3211	PHIL CARLTON'S
-1.2216	PHIL DAVIES
-3.3211	PHIL DAVIES'S
-1.2207	PHIL GLOVER
-1.2286	PHIL JOHNSON
-1.2028	PHIL JONES
-3.3211	PHIL JONES'S
-1.2242	PHIL MILLER
-3.3211	PHIL MILLER'S
-1.1848	PHIL MILNE
-1.3402	PHIL ON
-1.2349	PHIL PINKER
-3.3211	PHIL PINKER'S
-1.2251	PHIL SMITH
-3.3211	PHIL SMITH'S
-1.4640	PHIL TODAY
-1.4609	PHIL TOMORROW
-1.2138	PHIL WORDSWORTH
-3.3211	PHIL WORDSWORTH'S
-1.2207	PHIL YOUNG
-0.6064	PHIL'S ADDRESS
-0.6064	PHIL'S EMAIL
-0.6064	PHIL'S FAX
-0.6064	PHIL'S TELEPHONE
-3.1261	PHONE ANN
-3.1261	PHONE ANTHONY
-3.1261	PHONE BILL
-0.4123	PHONE CALL
-3.1261	PHONE CHARLES
-3.1261	PHONE DAVID
-2.0094	PHONE DOCTOR
-1.3671	PHONE DOUBLE
-1.3512	PHONE EIGHT
-3.1217	PHONE ELAINE
-1.3596	PHONE FIVE
-1.3646	PHONE FOUR
-3.1217	PHONE JAMES
-3.1217	PHONE JOHN
-3.1217	PHONE KEITH
-3.1217	PHONE MICHAEL
-3.1217	PHONE MIKE
-1.3690	PHONE NINE
-3.1217	PHONE NORMAN
-1.0557	PHONE OH
-1.3349	PHONE ONE
-3.1217	PHONE PHIL
-2.0148	PHONE PROFESSOR
-3.1217	PHONE RICHARD
-1.3466	PHONE SEVEN
-3.1217	PHONE SIMONE
-1.3497	PHONE SIX
-3.1217	PHONE STEVE
-3.1217	PHONE SUSAN
-3.1217	PHONE TED
-1.3439	PHONE THREE
-3.1217	PHONE TONY
-1.3605	PHONE TWO
-3.1217	PHONE WENDY
-1.3515	PHONE ZERO
-0.5657	PINKER </S>
-0.4775	PINKER AND
-0.7611	PINKER ON
-0.9792	PINKER TODAY
-0.9711	PINKER TOMORROW
-0.6010	PINKER'S ADDRESS
-0.6232	PINKER'S EMAIL
-0.6010	PINKER'S FAX
-0.6010	PINKER'S TELEPHONE
-0.7218	PLEASE ARRANGE
-1.0656	PLEASE CALL
-0.7172	PLEASE CANCEL
-1.0760	PLEASE DIAL
-1.3123	PLEASE FIND
-0.8726	PLEASE GET
-1.0664	PLEASE PHONE
-0.7654	PLEASE SEND
-1.2914	PROFESSOR ANN
-1.3035	PROFESSOR ANTHONY
-1.3204	PROFESSOR BILL
-1.3105	PROFESSOR CHARLES
-1.3268	PROFESSOR DAVID
-1.3351	PROFESSOR ELAINE
-1.3268	PROFESSOR JAMES
-1.3097	PROFESSOR JOHN
-1.3088	PROFESSOR KEITH
-1.3451	PROFESSOR MICHAEL
-1.3298	PROFESSOR MIKE
-1.3133	PROFESSOR NORMAN
-1.3242	PROFESSOR PHIL
-1.0949	PROFESSOR RICHARD
-1.3224	PROFESSOR SIMONE
-1.3233	PROFESSOR STEVE
-1.3270	PROFESSOR SUSAN
-1.3079	PROFESSOR TED
-1.2974	PROFESSOR TONY
-1.2991	PROFESSOR WENDY
-1.2925	RICHARD </S>
-0.8128	RICHARD AND
-1.2004	RICHARD CARLTON
-3.5521	RICHARD CARLTON'S
-1.1995	RICHARD DAVIES
-3.5521	RICHARD DAVIES'S
-1.2334	RICHARD GLOVER
-1.2138	RICHARD JOHNSON
-1.2209	RICHARD JONES
-3.5521	RICHARD JONES'S
-1.1980	RICHARD MILLER
-3.5521	RICHARD MILLER'S
-1.2169	RICHARD MILNE
-1.3192	RICHARD ON
-1.2054	RICHARD PINKER
-3.5521	RICHARD PINKER'S
-1.2179	RICHARD SMITH
-3.5521	RICHARD SMITH'S
-1.4614	RICHARD TODAY
-1.4796	RICHARD TOMORROW
-1.2179	RICHARD WORDSWORTH
-3.5521	RICHARD WORDSWORTH'S
-1.1932	RICHARD YOUNG
-0.6064	RICHARD'S ADDRESS
-0.6064	RICHARD'S EMAIL
-0.6064	RICHARD'S FAX
-0.6064	RICHARD'S TELEPHONE
-0.0044	SEMINAR WITH
-0.1789	SEND A
-0.4846	SEND AN
-0.8387	SEVEN </S>
-1.2415	SEVEN DOUBLE
-1.1380	SEVEN EIGHT
-1.1478	SEVEN FIVE
-1.1479	SEVEN FOUR
-1.1511	SEVEN NINE
-1.1430	SEVEN OH
-1.1450	SEVEN ONE
-1.1395	SEVEN SEVEN
-1.1483	SEVEN SIX
-1.1423	SEVEN THREE
-1.1345	SEVEN TWO
-1.1321	SEVEN ZERO
-1.2309	SIMONE </S>
-0.8236	SIMONE AND
-1.2037	SIMONE CARLTON
-3.3269	SIMONE CARLTON'S
-1.1898	SIMONE DAVIES
-3.3269	SIMONE DAVIES'S
-1.1995	SIMONE GLOVER
-1.2188	SIMONE JOHNSON
-1.2213	SIMONE JONES
-3.3269	SIMONE JONES'S
-1.2470	SIMONE MILLER
-3.3269	SIMONE MILLER'S
-1.2078	SIMONE MILNE
-1.3403	SIMONE ON
-1.2327	SIMONE PINKER
-3.3269	SIMONE PINKER'S
-1.2213	SIMONE SMITH
-3.3269	SIMONE SMITH'S
-1.4981	SIMONE TODAY
-1.4637	SIMONE TOMORROW
-1.1867	SIMONE WORDSWORTH
-3.3269	SIMONE WORDSWORTH'S
-1.2012	SIMONE YOUNG
-0.6064	SIMONE'S ADDRESS
-0.6064	SIMONE'S EMAIL
-0.6064	SIMONE'S FAX
-0.6064	SIMONE'S TELEPHONE
-0.8327	SIX </S>
-1.2389	SIX DOUBLE
-1.1535	SIX EIGHT
-1.1345	SIX FIVE
-1.1390	SIX FOUR
-1.1570	SIX NINE
-1.1404	SIX OH
-1.1425	SIX ONE
-1.1365	SIX SEVEN
-1.1443	SIX SIX
-1.1573	SIX THREE
-1.1413	SIX TWO
-1.1381	SIX ZERO
-0.5646	SMITH </S>
-0.4727	SMITH AND
-0.7789	SMITH ON
-0.9778	SMITH TODAY
-0.9621	SMITH TOMORROW
-0.6064	SMITH'S ADDRESS
-0.6064	SMITH'S EMAIL
-0.6064	SMITH'S FAX
-0.6064	SMITH'S TELEPHONE
-1.2358	STEVE </S>
-0.8058	STEVE AND
-1.2121	STEVE CARLTON
-3.3194	STEVE CARLTON'S
-1.2358	STEVE DAVIES
-3.3194	STEVE DAVIES'S
-1.2078	STEVE GLOVER
-1.2395	STEVE JOHNSON
-1.2053	STEVE JONES
-3.3194	STEVE JONES'S
-1.1799	STEVE MILLER
-3.3194	STEVE MILLER'S
-1.1904	STEVE MILNE
-1.3548	STEVE ON
-1.2172	STEVE PINKER
-3.3194	STEVE PINKER'S
-1.2287	STEVE SMITH
-3.3194	STEVE SMITH'S
-1.4746	STEVE TODAY
-1.4638	STEVE TOMORROW
-1.2313	STEVE WORDSWORTH
-3.3194	STEVE WORDSWORTH'S
-1.2242	STEVE YOUNG
-0.6064	STEVE'S ADDRESS
-0.6064	STEVE'S EMAIL
-0.6064	STEVE'S FAX
-0.6064	STEVE'S TELEPHONE
-1.2237	SUSAN </S>
-0.8057	SUSAN AND
-1.2423	SUSAN CARLTON
-3.3249	SUSAN CARLTON'S
-1.2387	SUSAN DAVIES
-3.3249	SUSAN DAVIES'S
-1.2378	SUSAN GLOVER
-1.2219	SUSAN JOHNSON
-1.2125	SUSAN JONES
-3.3249	SUSAN JONES'S
-1.2298	SUSAN MILLER
-3.3249	SUSAN MILLER'S
-1.2159	SUSAN MILNE
-1.3056	SUSAN ON
-1.2193	SUSAN PINKER
-3.3249	SUSAN PINKER'S
-1.2041	SUSAN SMITH
-3.3249	SUSAN SMITH'S
-1.4134	SUSAN TODAY
-1.4678	SUSAN TOMORROW
-1.2100	SUSAN WORDSWORTH
-3.3249	SUSAN WORDSWORTH'S
-1.2219	SUSAN YOUNG
-0.6064	SUSAN'S ADDRESS
-0.6064	SUSAN'S EMAIL
-0.6064	SUSAN'S FAX
-0.6064	SUSAN'S TELEPHONE
-1.2289	TED </S>
-0.8123	TED AND
-1.2333	TED CARLTON
-3.3205	TED CARLTON'S
-1.2106	TED DAVIES
-3.3205	TED DAVIES'S
-1.2055	TED GLOVER
-1.2271	TED JOHNSON
-1.2369	TED JONES
-3.3205	TED JONES'S
-1.2123	TED MILLER
-3.3205	TED MILLER'S
-1.2175	TED MILNE
-1.3216	TED ON
-1.2115	TED PINKER
-3.3205	TED PINKER'S
-1.2072	TED SMITH
-3.3205	TED SMITH'S
-1.4498	TED TODAY
-1.4603	TED TOMORROW
-1.2175	TED WORDSWORTH
-3.3205	TED WORDSWORTH'S
-1.2210	TED YOUNG
-0.6064	TED'S ADDRESS
-0.6064	TED'S EMAIL
-0.6064	TED'S FAX
-0.6064	TED'S TELEPHONE
-0.0044	TELECONFERENCE WITH
-0.0044	TELEPHONE NUMBER
-1.3269	THE ADDRESS
-1.3177	THE EMAIL
-1.3208	THE FAX
-0.7990	THE INTERVIEW
-0.7875	THE MEETING
-0.8010	THE PHONE
-0.7927	THE SEMINAR
-0.7965	THE TELECONFERENCE
-1.3181	THE TELEPHONE
-0.8371	THREE </S>
-1.2504	THREE DOUBLE
-1.1655	THREE EIGHT
-1.1601	THREE FIVE
-1.1536	THREE FOUR
-1.1367	THREE NINE
-1.1297	THREE OH
-1.1377	THREE ONE
-1.1297	THREE SEVEN
-1.1293	THREE SIX
-1.1422	THREE THREE
-1.1373	THREE TWO
-1.1451	THREE ZERO
-0.0044	THURSDAY </S>
-1.3545	TO ANN
-1.3628	TO ANTHONY
-1.3595	TO BILL
-1.3530	TO CHARLES
-1.3612	TO DAVID
-1.4158	TO DOCTOR
-1.3572	TO ELAINE
-1.3518	TO JAMES
-1.3474	TO JOHN
-1.3574	TO KEITH
-1.3435	TO MICHAEL
-1.3478	TO MIKE
-1.3494	TO NORMAN
-1.3456	TO PHIL
-1.4047	TO PROFESSOR
-1.1181	TO RICHARD
-1.3499	TO SIMONE
-1.3494	TO STEVE
-1.3581	TO SUSAN
-1.3582	TO TED
-1.3515	TO TONY
-1.3481	TO WENDY
-0.0044	TODAY </S>
-0.0044	TOMORROW </S>
-1.2339	TONY </S>
-0.8154	TONY AND
-1.2104	TONY CARLTON
-3.3228	TONY CARLTON'S
-1.2190	TONY DAVIES
-3.3228	TONY DAVIES'S
-1.2172	TONY GLOVER
-1.2268	TONY JOHNSON
-1.2121	TONY JONES
-3.3228	TONY JONES'S
-1.2172	TONY MILLER
-3.3228	TONY MILLER'S
-1.2268	TONY MILNE
-1.3500	TONY ON
-1.1987	TONY PINKER
-3.3228	TONY PINKER'S
-1.2503	TONY SMITH
-3.3228	TONY SMITH'S
-1.4020	TONY TODAY
-1.4860	TONY TOMORROW
-1.1890	TONY WORDSWORTH
-3.3228	TONY WORDSWORTH'S
-1.2155	TONY YOUNG
-0.6064	TONY'S ADDRESS
-0.6064	TONY'S EMAIL
-0.6064	TONY'S FAX
-0.6064	TONY'S TELEPHONE
-0.0044	TUESDAY </S>
-0.8362	TWO </S>
-1.2550	TWO DOUBLE
-1.1574	TWO EIGHT
-1.1506	TWO FIVE
-1.1404	TWO FOUR
-1.1406	TWO NINE
-1.1455	TWO OH
-1.1442	TWO ONE
-1.1508	TWO SEVEN
-1.1337	TWO SIX
-1.1270	TWO THREE
-1.1434	TWO TWO
-1.1308	TWO ZERO
-0.0044	WEDNESDAY </S>
-1.2188	WENDY </S>
-0.8094	WENDY AND
-1.1833	WENDY CARLTON
-3.3244	WENDY CARLTON'S
-1.2119	WENDY DAVIES
-3.3244	WENDY DAVIES'S
-1.2546	WENDY GLOVER
-1.1937	WENDY JOHNSON
-1.2248	WENDY JONES
-3.3244	WENDY JONES'S
-1.2128	WENDY MILLER
-3.3244	WENDY MILLER'S
-1.2266	WENDY MILNE
-1.3645	WENDY ON
-1.2153	WENDY PINKER
-3.3244	WENDY PINKER'S
-1.2205	WENDY SMITH
-3.3244	WENDY SMITH'S
-1.4687	WENDY TODAY
-1.4703	WENDY TOMORROW
-1.2354	WENDY WORDSWORTH
-3.3244	WENDY WORDSWORTH'S
-1.1937	WENDY YOUNG
-0.6064	WENDY'S ADDRESS
-0.6064	WENDY'S EMAIL
-0.6064	WENDY'S FAX
-0.6064	WENDY'S TELEPHONE
-0.0044	WHAT IS
-0.7033	WHEN AM
-0.0969	WHEN IS
-1.3658	WITH ANN
-1.3701	WITH ANTHONY
-1.3841	WITH BILL
-1.3704	WITH CHARLES
-1.3841	WITH DAVID
-1.2441	WITH DOCTOR
-1.3734	WITH ELAINE
-1.3639	WITH JAMES
-1.3689	WITH JOHN
-1.3633	WITH KEITH
-1.3614	WITH MICHAEL
-1.3617	WITH MIKE
-1.3605	WITH NORMAN
-1.3708	WITH PHIL
-1.2383	WITH PROFESSOR
-1.1569	WITH RICHARD
-1.3571	WITH SIMONE
-1.3708	WITH STEVE
-1.3672	WITH SUSAN
-1.3760	WITH TED
-1.3749	WITH TONY
-1.3673	WITH WENDY
-0.5636	WORDSWORTH </S>
-0.4797	WORDSWORTH AND
-0.7635	WORDSWORTH ON
-0.9745	WORDSWORTH TODAY
-0.9703	WORDSWORTH TOMORROW
-0.6064	WORDSWORTH'S ADDRESS
-0.6064	WORDSWORTH'S EMAIL
-0.6064	WORDSWORTH'S FAX
-0.6064	WORDSWORTH'S TELEPHONE
-0.5561	YOUNG </S>
-0.4853	YOUNG AND
-0.7654	YOUNG ON
-0.9660	YOUNG TODAY
-0.9778	YOUNG TOMORROW
-0.8215	ZERO </S>
-1.2372	ZERO DOUBLE
-1.1568	ZERO EIGHT
-1.1480	ZERO FIVE
-1.1580	ZERO FOUR
-1.1546	ZERO NINE
-1.1542	ZERO OH
-1.1364	ZERO ONE
-1.1378	ZERO SEVEN
-1.1379	ZERO SIX
-1.1556	ZERO THREE
-1.1406	ZERO TWO
-1.1294	ZERO ZERO

\end\
